{"learner":{"attributes":{"best_iteration":"249","best_ntree_limit":"250","scikit_learn":"{\"n_estimators\": 250, \"objective\": \"reg:squarederror\", \"max_depth\": 10, \"max_leaves\": null, \"max_bin\": null, \"grow_policy\": null, \"learning_rate\": 0.1, \"verbosity\": null, \"booster\": null, \"tree_method\": null, \"gamma\": null, \"min_child_weight\": 100, \"max_delta_step\": null, \"subsample\": null, \"sampling_method\": null, \"colsample_bytree\": 0.5, \"colsample_bylevel\": null, \"colsample_bynode\": null, \"reg_alpha\": null, \"reg_lambda\": null, \"scale_pos_weight\": null, \"base_score\": 0.3, \"missing\": NaN, \"num_parallel_tree\": null, \"random_state\": null, \"n_jobs\": null, \"monotone_constraints\": null, \"interaction_constraints\": null, \"importance_type\": null, \"gpu_id\": null, \"validate_parameters\": null, \"predictor\": null, \"enable_categorical\": false, \"feature_types\": null, \"max_cat_to_onehot\": null, \"max_cat_threshold\": null, \"eval_metric\": null, \"early_stopping_rounds\": null, \"callbacks\": null, \"kwargs\": {\"boost_params\": \"gbtree\"}, \"_estimator_type\": \"regressor\"}"},"feature_names":["0","1","2","3","4","5","6","7","8","9","10","11","12","13","14","15","16","17","18","19","20","21","22","23","24","25","26","27","28","29","30","31","32"],"feature_types":["float","float","float","float","float","float","float","float","float","float","float","float","float","float","float","float","float","float","float","float","float","float","float","float","float","float","float","float","float","float","float","float","float"],"gradient_booster":{"model":{"gbtree_model_param":{"num_parallel_tree":"1","num_trees":"250","size_leaf_vector":"0"},"tree_info":[0,0,0,0,0,0,0,0,0,0,0,0,0,0,0,0,0,0,0,0,0,0,0,0,0,0,0,0,0,0,0,0,0,0,0,0,0,0,0,0,0,0,0,0,0,0,0,0,0,0,0,0,0,0,0,0,0,0,0,0,0,0,0,0,0,0,0,0,0,0,0,0,0,0,0,0,0,0,0,0,0,0,0,0,0,0,0,0,0,0,0,0,0,0,0,0,0,0,0,0,0,0,0,0,0,0,0,0,0,0,0,0,0,0,0,0,0,0,0,0,0,0,0,0,0,0,0,0,0,0,0,0,0,0,0,0,0,0,0,0,0,0,0,0,0,0,0,0,0,0,0,0,0,0,0,0,0,0,0,0,0,0,0,0,0,0,0,0,0,0,0,0,0,0,0,0,0,0,0,0,0,0,0,0,0,0,0,0,0,0,0,0,0,0,0,0,0,0,0,0,0,0,0,0,0,0,0,0,0,0,0,0,0,0,0,0,0,0,0,0,0,0,0,0,0,0,0,0,0,0,0,0,0,0,0,0,0,0,0,0,0,0,0,0,0,0,0,0,0,0],"trees":[{"base_weights":[4.193173E1,4.866669E1,3.3828045E1,3.572794E1,5.059989E1,2.6110765E1,3.4981777E1,4.883362E1,5.6990353E1,3.2210594E1,3.784101E1,5.393275E1,4.627874E1,6.2330784E1,5.189108E1,2.961004E1,3.3950413E1,4.0367584E1,3.5184227E1,4.220367E1,4.7783985E1,2.9690294E1,3.645405E1,4.3069176E1,3.7052326E1,3.1600048E1,3.8253048E1],"categories":[],"categories_nodes":[],"categories_segments":[],"categories_sizes":[],"default_left":[1,1,1,0,1,0,1,0,1,1,0,0,1,0,0,0,1,0,1,0,0,0,0,0,0,0,0],"id":0,"left_children":[1,3,5,-1,7,-1,9,11,13,15,17,-1,19,-1,-1,-1,21,23,25,-1,-1,-1,-1,-1,-1,-1,-1],"loss_changes":[1.1820725E5,2.8133E4,7.990375E3,0E0,8.94425E3,0E0,5.650625E3,8.19975E3,2.7295E3,1.01715625E3,1.4056875E3,0E0,1.381625E3,0E0,0E0,0E0,1.7014062E3,2.760625E2,1.1340312E3,0E0,0E0,0E0,0E0,0E0,0E0,0E0,0E0],"parents":[2147483647,0,0,1,1,2,2,4,4,6,6,7,7,8,8,9,9,10,10,12,12,16,16,17,17,18,18],"right_children":[2,4,6,-1,8,-1,10,12,14,16,18,-1,20,-1,-1,-1,22,24,26,-1,-1,-1,-1,-1,-1,-1,-1],"split_conditions":[-3.2771307E-1,-5.700158E-1,-1.1467607E0,3.572794E0,7.9499185E-1,2.6110766E0,5.938155E-1,-5.9914696E-1,-9.214437E-1,-4.892664E-1,8.0154324E-1,5.3932753E0,-3.9260513E-1,6.2330785E0,5.189108E0,2.961004E0,-7.5538254E-1,1.0264533E0,6.65639E-1,4.220367E0,4.7783985E0,2.9690294E0,3.6454048E0,4.3069177E0,3.7052326E0,3.1600049E0,3.8253047E0],"split_indices":[28,16,15,0,6,0,1,15,26,7,28,0,1,0,0,0,31,15,7,0,0,0,0,0,0,0,0],"split_type":[0,0,0,0,0,0,0,0,0,0,0,0,0,0,0,0,0,0,0,0,0,0,0,0,0,0,0],"sum_hessian":[2.195E3,1.196E3,9.99E2,1.58E2,1.038E3,1.33E2,8.66E2,8.2E2,2.18E2,4.46E2,4.2E2,2.67E2,5.53E2,1.01E2,1.17E2,1.86E2,2.6E2,2.08E2,2.12E2,1.57E2,3.96E2,1.01E2,1.59E2,1.08E2,1E2,1.03E2,1.09E2],"tree_param":{"num_deleted":"0","num_feature":"33","num_nodes":"27","size_leaf_vector":"0"}},{"base_weights":[3.7764317E1,4.3195774E1,3.1055124E1,3.774008E1,4.5230507E1,2.483655E1,3.3133667E1,3.969036E1,3.2828644E1,5.08019E1,4.308797E1,2.6745205E1,2.1973341E1,2.9225485E1,3.5595055E1,3.512913E1,4.2808834E1,4.1127995E1,4.916281E1,3.1598278E1,2.4678005E1,3.0822691E1,3.778436E1,3.7089634E1,4.2717773E1,4.1714333E1,3.469395E1],"categories":[],"categories_nodes":[],"categories_segments":[],"categories_sizes":[],"default_left":[1,0,0,1,0,1,1,1,0,0,1,0,0,1,1,0,0,0,0,0,0,0,1,0,0,0,0],"id":1,"left_children":[1,3,5,7,9,11,13,15,-1,-1,17,-1,-1,19,21,-1,-1,23,-1,-1,-1,-1,25,-1,-1,-1,-1],"loss_changes":[7.86825E4,1.1736E4,1.192175E4,1.905875E3,8.27975E3,7.84E2,6.0396875E3,1.8388125E3,0E0,0E0,5.598125E3,0E0,0E0,2.349375E3,3.5056875E3,0E0,0E0,1.5614375E3,0E0,0E0,0E0,0E0,2.2206562E3,0E0,0E0,0E0,0E0],"parents":[2147483647,0,0,1,1,2,2,3,3,4,4,5,5,6,6,7,7,10,10,13,13,14,14,17,17,22,22],"right_children":[2,4,6,8,10,12,14,16,-1,-1,18,-1,-1,20,22,-1,-1,24,-1,-1,-1,-1,26,-1,-1,-1,-1],"split_conditions":[9.11899E-2,-5.5761974E-2,-2.1635765E-1,-2.5458843E-1,-6.3910794E-1,-6.023024E-1,-7.5487304E-1,-5.090336E-1,3.2828643E0,5.08019E0,7.878393E-1,2.6745205E0,2.197334E0,-1.6964766E-1,1.1862269E-1,3.5129132E0,4.2808833E0,4.546134E-1,4.916281E0,3.159828E0,2.4678006E0,3.0822692E0,7.1280205E-1,3.7089634E0,4.2717776E0,4.1714334E0,3.4693952E0],"split_indices":[13,19,29,13,23,6,31,5,0,0,6,0,0,6,1,0,0,29,0,0,0,0,13,0,0,0,0],"split_type":[0,0,0,0,0,0,0,0,0,0,0,0,0,0,0,0,0,0,0,0,0,0,0,0,0,0,0],"sum_hessian":[2.195E3,1.21E3,9.85E2,3.34E2,8.76E2,2.5E2,7.35E2,2.34E2,1E2,2.37E2,6.39E2,1.45E2,1.05E2,2.89E2,4.46E2,1E2,1.34E2,4.89E2,1.5E2,1.86E2,1.03E2,1.45E2,3.01E2,1.45E2,3.44E2,1.27E2,1.74E2],"tree_param":{"num_deleted":"0","num_feature":"33","num_nodes":"27","size_leaf_vector":"0"}},{"base_weights":[3.4010777E1,4.015802E1,2.7563133E1,2.91596E1,4.1507713E1,2.5377237E1,3.1102512E1,4.9831722E1,4.0503376E1,2.3133038E1,2.7605787E1,2.8749208E1,3.647164E1,3.9606277E1,4.607491E1,2.4626842E1,1.9555223E1,3.0441395E1,2.5286995E1,2.568656E1,3.0618895E1,4.3440586E1,3.8102787E1,2.6677824E1,2.289479E1,3.453471E1,3.9481384E1],"categories":[],"categories_nodes":[],"categories_segments":[],"categories_sizes":[],"default_left":[1,0,1,0,1,0,1,0,1,0,1,1,0,0,0,1,0,0,0,0,0,0,1,0,0,0,0],"id":2,"left_children":[1,3,5,-1,7,9,11,-1,13,15,17,19,-1,21,-1,23,-1,-1,-1,-1,-1,-1,25,-1,-1,-1,-1],"loss_changes":[8.593225E4,1.544525E4,7.527625E3,0E0,6.3165E3,2.7122812E3,4.0813125E3,0E0,2.648625E3,1.3355781E3,1.4065938E3,8.5690625E2,0E0,2.829875E3,0E0,2.2759375E2,0E0,0E0,0E0,0E0,0E0,0E0,1.4255625E3,0E0,0E0,0E0,0E0],"parents":[2147483647,0,0,1,1,2,2,4,4,5,5,6,6,8,8,9,9,10,10,11,11,13,13,15,15,22,22],"right_children":[2,4,6,-1,8,10,12,-1,14,16,18,20,-1,22,-1,24,-1,-1,-1,-1,-1,-1,26,-1,-1,-1,-1],"split_conditions":[7.9214294E-4,-5.356021E-1,7.263931E-1,2.91596E0,-1.4912152E0,3.9878078E-2,-5.848017E-1,4.9831724E0,3.1661004E-1,-5.0595887E-2,5.9548867E-1,-7.402104E-1,3.647164E0,-7.689526E-1,4.607491E0,4.8264205E-1,1.9555224E0,3.0441396E0,2.5286996E0,2.568656E0,3.0618894E0,4.3440585E0,-3.9260513E-1,2.6677825E0,2.289479E0,3.453471E0,3.9481385E0],"split_indices":[27,16,1,0,13,29,32,0,29,16,13,12,0,20,0,27,0,0,0,0,0,0,1,0,0,0,0],"split_type":[0,0,0,0,0,0,0,0,0,0,0,0,0,0,0,0,0,0,0,0,0,0,0,0,0,0,0],"sum_hessian":[2.195E3,1.121E3,1.074E3,1.25E2,9.96E2,6.69E2,4.05E2,1.02E2,8.94E2,3.39E2,3.3E2,2.86E2,1.19E2,7.77E2,1.17E2,2.35E2,1.04E2,1.43E2,1.87E2,1.14E2,1.72E2,2.11E2,5.66E2,1.01E2,1.34E2,1.65E2,4.01E2],"tree_param":{"num_deleted":"0","num_feature":"33","num_nodes":"27","size_leaf_vector":"0"}},{"base_weights":[3.0630655E1,3.5633522E1,2.461159E1,3.406434E1,4.2371765E1,2.1113707E1,2.6326254E1,3.8126522E1,3.2265884E1,3.7693394E1,4.7225826E1,2.3356989E1,1.6864439E1,2.1533178E1,2.730672E1,4.1042377E1,3.3797993E1,2.6975811E1,3.362914E1,2.0700176E1,2.5870005E1,2.474086E1,2.8668571E1,2.628302E1,2.9876926E1],"categories":[],"categories_nodes":[],"categories_segments":[],"categories_sizes":[],"default_left":[1,1,1,0,1,1,1,0,0,0,0,0,0,0,0,0,0,0,0,0,0,0,1,0,0],"id":3,"left_children":[1,3,5,7,9,11,13,15,17,-1,-1,19,-1,-1,21,-1,-1,-1,-1,-1,-1,-1,23,-1,-1],"loss_changes":[6.5250375E4,1.1213125E4,5.4418125E3,5.900125E3,3.2613125E3,2.7898906E3,2.5465625E3,2.3235312E3,4.0184375E3,0E0,0E0,9.066328E2,0E0,0E0,1.2125938E3,0E0,0E0,0E0,0E0,0E0,0E0,0E0,2.323125E2,0E0,0E0],"parents":[2147483647,0,0,1,1,2,2,3,3,4,4,5,5,6,6,7,7,8,8,11,11,14,14,22,22],"right_children":[2,4,6,8,10,12,14,16,18,-1,-1,20,-1,-1,22,-1,-1,-1,-1,-1,-1,-1,24,-1,-1],"split_conditions":[-3.2771307E-1,7.9499185E-1,-5.5520487E-1,-6.3208675E-1,1.1710348E0,-4.9688888E-1,-7.042052E-2,-9.583905E-1,-5.1710546E-1,3.7693393E0,4.722583E0,-4.6128762E-1,1.6864439E0,2.153318E0,-7.1001434E-1,4.104238E0,3.3797994E0,2.697581E0,3.3629138E0,2.0700176E0,2.5870006E0,2.474086E0,5.593772E-2,2.628302E0,2.9876926E0],"split_indices":[28,6,30,15,32,6,14,26,21,0,0,14,0,0,9,0,0,0,0,0,0,0,23,0,0],"split_type":[0,0,0,0,0,0,0,0,0,0,0,0,0,0,0,0,0,0,0,0,0,0,0,0,0],"sum_hessian":[2.195E3,1.196E3,9.99E2,9.75E2,2.21E2,3.33E2,6.66E2,2.93E2,6.82E2,1.17E2,1.04E2,2.15E2,1.18E2,1.17E2,5.49E2,1.7E2,1.23E2,1.44E2,5.38E2,1.09E2,1.06E2,1.97E2,3.52E2,1.26E2,2.26E2],"tree_param":{"num_deleted":"0","num_feature":"33","num_nodes":"25","size_leaf_vector":"0"}},{"base_weights":[2.7585176E1,3.208858E1,2.2167017E1,3.0671783E1,3.817284E1,1.6082928E1,2.3001978E1,3.474281E1,2.9199152E1,4.1999825E1,3.350849E1,1.8566988E1,2.4136654E1,3.1967398E1,3.6424263E1,2.3046545E1,3.0336971E1,2.1867105E1,2.5597248E1,2.8811218E1,3.211019E1,2.050569E1,2.4028524E1,2.7106285E1,2.2171137E1,3.0970457E1,2.7608347E1,2.9967346E1,2.303809E1,2.939414E1,2.5578234E1],"categories":[],"categories_nodes":[],"categories_segments":[],"categories_sizes":[],"default_left":[1,1,1,0,0,0,0,1,1,0,0,0,1,0,0,0,1,1,0,0,0,0,0,0,0,0,0,0,0,0,0],"id":4,"left_children":[1,3,5,7,9,-1,11,13,15,-1,-1,-1,17,-1,-1,-1,19,21,23,25,-1,-1,-1,27,-1,-1,29,-1,-1,-1,-1],"loss_changes":[5.28715E4,9.147375E3,4.7100625E3,4.8368125E3,2.5554375E3,0E0,3.965125E3,2.096875E1,4.3621875E3,0E0,0E0,0E0,1.744125E3,0E0,0E0,0E0,7.17125E2,3.2826562E2,1.5549688E3,1.765625E1,0E0,0E0,0E0,2.6268281E3,0E0,0E0,6.384375E1,0E0,0E0,0E0,0E0],"parents":[2147483647,0,0,1,1,2,2,3,3,4,4,6,6,7,7,8,8,12,12,16,16,17,17,18,18,19,19,23,23,26,26],"right_children":[2,4,6,8,10,-1,12,14,16,-1,-1,-1,18,-1,-1,-1,20,22,24,26,-1,-1,-1,28,-1,-1,30,-1,-1,-1,-1],"split_conditions":[-3.2771307E-1,7.9499185E-1,-1.1988058E0,-7.8365725E-1,-8.3335763E-1,1.6082928E0,-3.7206972E-1,-1.2094625E0,-9.7383285E-1,4.1999826E0,3.3508492E0,1.8566989E0,-7.123357E-1,3.19674E0,3.6424263E0,2.3046546E0,5.1518065E-1,3.4896398E-1,1.0088449E0,-6.0306877E-1,3.2110193E0,2.050569E0,2.4028525E0,9.9543357E-1,2.2171137E0,3.0970457E0,-2.5234023E-1,2.9967346E0,2.303809E0,2.939414E0,2.5578234E0],"split_indices":[28,6,15,15,28,0,29,23,1,0,0,0,12,0,0,0,5,6,28,28,0,0,0,15,0,0,22,0,0,0,0],"split_type":[0,0,0,0,0,0,0,0,0,0,0,0,0,0,0,0,0,0,0,0,0,0,0,0,0,0,0,0,0,0,0],"sum_hessian":[2.195E3,1.196E3,9.99E2,9.75E2,2.21E2,1.23E2,8.76E2,2.53E2,7.22E2,1.17E2,1.04E2,1.82E2,6.94E2,1.03E2,1.5E2,1.16E2,6.06E2,2.78E2,4.16E2,3.35E2,2.71E2,1.77E2,1.01E2,2.84E2,1.32E2,1.11E2,2.24E2,1.63E2,1.21E2,1.12E2,1.12E2],"tree_param":{"num_deleted":"0","num_feature":"33","num_nodes":"31","size_leaf_vector":"0"}},{"base_weights":[2.4846666E1,2.8903532E1,1.9965752E1,3.0920876E1,2.4665936E1,1.4405941E1,2.0707537E1,3.685853E1,2.983008E1,2.097327E1,2.5913754E1,1.658119E1,2.1693785E1,2.5286116E1,3.066184E1,2.8042732E1,2.444055E1,1.960028E1,2.2996809E1,3.3224735E1,2.9639338E1,2.0771667E1,1.737542E1,2.6071405E1,2.1470217E1,2.831806E1,3.354519E1,2.2922277E1,1.8610973E1],"categories":[],"categories_nodes":[],"categories_segments":[],"categories_sizes":[],"default_left":[1,1,0,0,1,0,0,0,1,0,0,0,1,0,0,0,0,1,0,0,1,0,0,0,0,0,0,0,0],"id":5,"left_children":[1,3,5,7,9,-1,11,-1,13,-1,15,-1,17,-1,19,-1,-1,21,23,-1,25,-1,-1,-1,27,-1,-1,-1,-1],"loss_changes":[4.2906375E4,9.4700625E3,3.8259062E3,4.1273125E3,1.2581406E3,0E0,3.2215312E3,0E0,1.8211875E3,0E0,2.1792188E2,0E0,1.4779062E3,0E0,5.246875E2,0E0,0E0,3.6360156E2,1.4585E3,0E0,1.2227188E3,0E0,0E0,0E0,7.89875E2,0E0,0E0,0E0,0E0],"parents":[2147483647,0,0,1,1,2,2,3,3,4,4,6,6,8,8,10,10,12,12,14,14,17,17,18,18,20,20,24,24],"right_children":[2,4,6,8,10,-1,12,-1,14,-1,16,-1,18,-1,20,-1,-1,22,24,-1,26,-1,-1,-1,28,-1,-1,-1,-1],"split_conditions":[-3.2771307E-1,2.845484E-1,-1.1988058E0,-1.2783079E0,-1.303504E0,1.4405941E0,-3.9454806E-1,3.6858528E0,-1.0561469E0,2.097327E0,-7.028158E-1,1.6581191E0,-7.415745E-1,2.5286117E0,-8.195922E-1,2.8042734E0,2.444055E0,-1.5490077E-1,2.1905935E-1,3.3224735E0,7.155937E-1,2.0771668E0,1.737542E0,2.6071405E0,6.445565E-1,2.831806E0,3.354519E0,2.2922277E0,1.8610973E0],"split_indices":[28,2,15,28,23,0,29,0,3,0,28,0,12,0,23,0,0,4,15,0,6,0,0,0,28,0,0,0,0],"split_type":[0,0,0,0,0,0,0,0,0,0,0,0,0,0,0,0,0,0,0,0,0,0,0,0,0,0,0,0,0],"sum_hessian":[2.195E3,1.196E3,9.99E2,8.06E2,3.9E2,1.2E2,8.79E2,1.2E2,6.86E2,1.03E2,2.87E2,1.73E2,7.06E2,1.11E2,5.75E2,1.1E2,1.77E2,2.77E2,4.29E2,1.55E2,4.2E2,1.76E2,1.01E2,1.37E2,2.92E2,3.2E2,1E2,1.89E2,1.03E2],"tree_param":{"num_deleted":"0","num_feature":"33","num_nodes":"29","size_leaf_vector":"0"}},{"base_weights":[2.237873E1,2.6611572E1,1.799611E1,2.5608814E1,3.3468277E1,1.7336815E1,2.4094305E1,2.9274479E1,2.3659193E1,1.2087594E1,1.791958E1,2.496818E1,3.10007E1,1.7582048E1,2.4853119E1,1.5173503E1,1.9202656E1,3.3435852E1,2.8949213E1,2.5944542E1,2.2518385E1,1.2830737E1,1.7541943E1,1.662159E1,2.0657911E1,1.4917512E1,1.7968185E1,2.2124887E1,1.659436E1,2.3659641E1,1.9728828E1],"categories":[],"categories_nodes":[],"categories_segments":[],"categories_sizes":[],"default_left":[1,1,1,0,0,1,0,0,1,0,1,0,1,0,1,0,1,0,0,0,0,0,0,1,1,0,0,0,0,0,0],"id":6,"left_children":[1,3,5,7,-1,9,-1,11,13,-1,15,-1,17,-1,19,21,23,-1,-1,-1,-1,-1,-1,25,27,-1,-1,29,-1,-1,-1],"loss_changes":[4.0259E4,6.80925E3,3.9325E3,6.289625E3,0E0,2.78125E3,0E0,1.71625E3,4.2284062E3,0E0,2.80925E3,0E0,2.0604688E2,0E0,7.790625E2,1.3563047E3,1.8952812E3,0E0,0E0,0E0,0E0,0E0,0E0,2.3678906E2,1.8801875E3,0E0,0E0,5.408281E2,0E0,0E0,0E0],"parents":[2147483647,0,0,1,1,2,2,3,3,5,5,7,7,8,8,10,10,12,12,14,14,15,15,16,16,23,23,24,24,27,27],"right_children":[2,4,6,8,-1,10,-1,12,14,-1,16,-1,18,-1,20,22,24,-1,-1,-1,-1,-1,-1,26,28,-1,-1,30,-1,-1,-1],"split_conditions":[-5.770063E-3,1.035992E0,1.221391E0,-4.03924E-1,3.3468277E0,-1.5064387E0,2.4094305E0,-9.9318966E-2,-5.9628683E-1,1.2087594E0,-7.0491683E-1,2.496818E0,-1.1813451E0,1.7582048E0,9.229678E-1,4.6913588E-1,-5.8326954E-1,3.3435853E0,2.8949213E0,2.5944543E0,2.2518384E0,1.2830738E0,1.7541943E0,-1.3771205E0,1.1224563E0,1.4917512E0,1.7968186E0,6.7596394E-1,1.6594361E0,2.3659642E0,1.9728829E0],"split_indices":[27,11,29,15,0,15,0,19,8,0,7,0,13,0,32,10,5,0,0,0,0,0,0,10,27,0,0,15,0,0,0],"split_type":[0,0,0,0,0,0,0,0,0,0,0,0,0,0,0,0,0,0,0,0,0,0,0,0,0,0,0,0,0,0,0],"sum_hessian":[2.195E3,1.114E3,1.081E3,9.76E2,1.38E2,9.79E2,1.02E2,3.34E2,6.42E2,1E2,8.79E2,1E2,2.34E2,1.08E2,5.34E2,2.84E2,5.95E2,1E2,1.34E2,3.57E2,1.77E2,1.46E2,1.38E2,2.19E2,3.76E2,1.02E2,1.17E2,2.73E2,1.03E2,1.61E2,1.12E2],"tree_param":{"num_deleted":"0","num_feature":"33","num_nodes":"31","size_leaf_vector":"0"}},{"base_weights":[2.0156628E1,2.3543087E1,1.732106E1,2.709322E1,2.1724611E1,1.4361594E1,1.9339113E1,2.1675919E1,2.9315674E1,1.7604239E1,2.3287836E1,1.5398245E1,1.0267292E1,1.3958523E1,2.0208542E1,3.2254528E1,2.6841396E1,2.2120893E1,2.7436184E1,1.3985839E1,1.7894161E1,1.6512339E1,2.114818E1,2.3162663E1,2.0500288E1,1.5163658E1,1.2181259E1,2.0021643E1,2.4733074E1,2.1728117E1,1.5291484E1,1.8445261E1,2.354005E1],"categories":[],"categories_nodes":[],"categories_segments":[],"categories_sizes":[],"default_left":[0,0,1,0,0,1,0,0,0,0,1,0,0,0,0,0,0,1,0,1,0,0,1,0,0,0,0,0,0,1,0,0,0],"id":7,"left_children":[1,3,5,7,9,11,13,-1,15,-1,17,19,-1,-1,21,-1,-1,23,-1,25,-1,-1,27,-1,-1,-1,-1,29,-1,31,-1,-1,-1],"loss_changes":[2.0679375E4,5.8543125E3,6.8830938E3,3.3857969E3,3.8733438E3,1.9216406E3,3.0393125E3,0E0,8.357969E2,0E0,1.7118594E3,1.1210547E3,0E0,0E0,1.7659062E3,0E0,0E0,1.6503125E2,0E0,3.5303125E2,0E0,0E0,1.451375E3,0E0,0E0,0E0,0E0,2.6705E3,0E0,1.1777812E3,0E0,0E0,0E0],"parents":[2147483647,0,0,1,1,2,2,3,3,4,4,5,5,6,6,8,8,10,10,11,11,14,14,17,17,19,19,22,22,27,27,29,29],"right_children":[2,4,6,8,10,12,14,-1,16,-1,18,20,-1,-1,22,-1,-1,24,-1,26,-1,-1,28,-1,-1,-1,-1,30,-1,32,-1,-1,-1],"split_conditions":[-4.495038E-2,-4.03924E-1,-7.5538254E-1,-2.5158197E-1,1.926276E-2,2.6882991E-2,-4.172405E-1,2.1675918E0,-1.2036111E0,1.7604239E0,9.423111E-1,-4.633171E-1,1.0267292E0,1.3958523E0,-7.1001434E-1,3.225453E0,2.6841397E0,2.9698104E-1,2.7436185E0,-1.0598233E0,1.7894162E0,1.6512339E0,9.5903456E-1,2.3162663E0,2.0500288E0,1.5163659E0,1.2181259E0,1.042235E0,2.4733074E0,-2.2611457E-1,1.5291485E0,1.8445262E0,2.354005E0],"split_indices":[26,15,31,19,19,6,29,0,26,0,11,18,0,0,9,0,0,0,0,11,0,0,29,0,0,0,0,15,0,8,0,0,0],"split_type":[0,0,0,0,0,0,0,0,0,0,0,0,0,0,0,0,0,0,0,0,0,0,0,0,0,0,0,0,0,0,0,0,0],"sum_hessian":[2.195E3,9.97E2,1.198E3,3.33E2,6.64E2,4.89E2,7.09E2,1E2,2.33E2,1.86E2,4.78E2,3.88E2,1.01E2,1.01E2,6.08E2,1.01E2,1.32E2,3.78E2,1E2,2.52E2,1.36E2,1.27E2,4.81E2,2.22E2,1.56E2,1.48E2,1.04E2,3.71E2,1.1E2,2.7E2,1.01E2,1E2,1.7E2],"tree_param":{"num_deleted":"0","num_feature":"33","num_nodes":"33","size_leaf_vector":"0"}},{"base_weights":[1.8156332E1,2.1761652E1,1.4635041E1,2.0601892E1,2.684137E1,1.2129699E1,1.5815139E1,2.2213892E1,1.8551151E1,1.391936E1,8.88129E0,1.3412231E1,1.68054E1,2.288326E1,1.9597816E1,1.46588E1,1.9816612E1,1.56016655E1,1.16387825E1,1.59914465E1,1.1220927E1,1.5575985E1,1.907057E1,2.4440556E1,2.081265E1,2.1332571E1,1.7601965E1,1.3872634E1,1.6790205E1],"categories":[],"categories_nodes":[],"categories_segments":[],"categories_sizes":[],"default_left":[1,1,1,1,0,1,1,1,0,1,0,1,1,1,0,0,1,0,0,0,0,0,0,0,0,0,0,0,0],"id":8,"left_children":[1,3,5,7,-1,9,11,13,15,17,-1,19,21,23,-1,-1,25,-1,-1,-1,-1,27,-1,-1,-1,-1,-1,-1,-1],"loss_changes":[2.7560562E4,5.8272812E3,3.1017656E3,2.5168125E3,0E0,1.9750664E3,1.5687344E3,4.1134375E2,1.6600625E3,7.046758E2,0E0,1.0922266E3,1.1789219E3,7.3278125E2,0E0,0E0,6.182656E2,0E0,0E0,0E0,0E0,4.8889844E2,0E0,0E0,0E0,0E0,0E0,0E0,0E0],"parents":[2147483647,0,0,1,1,2,2,3,3,5,5,6,6,7,7,8,8,9,9,11,11,12,12,13,13,16,16,21,21],"right_children":[2,4,6,8,-1,10,12,14,16,18,-1,20,22,24,-1,-1,26,-1,-1,-1,-1,28,-1,-1,-1,-1,-1,-1,-1],"split_conditions":[-5.5862516E-2,7.9499185E-1,-5.5520487E-1,-1.8088488E-1,2.684137E0,-4.9688888E-1,-7.041238E-1,3.3271092E-1,-4.764945E-1,1.1245228E0,8.8812906E-1,7.5394356E-1,-2.8776866E-1,-6.7824966E-1,1.9597816E0,1.46588E0,9.379123E-1,1.5601666E0,1.1638783E0,1.5991447E0,1.1220927E0,5.9475636E-1,1.907057E0,2.4440556E0,2.0812652E0,2.1332572E0,1.7601966E0,1.3872634E0,1.6790205E0],"split_indices":[27,6,30,6,0,6,7,7,21,4,0,4,10,26,0,0,32,0,0,0,0,22,0,0,0,0,0,0,0],"split_type":[0,0,0,0,0,0,0,0,0,0,0,0,0,0,0,0,0,0,0,0,0,0,0,0,0,0,0,0,0],"sum_hessian":[2.195E3,1.082E3,1.113E3,8.85E2,1.97E2,3.6E2,7.53E2,4.9E2,3.95E2,2.3E2,1.3E2,2.24E2,5.29E2,3.84E2,1.06E2,1E2,2.95E2,1.29E2,1.01E2,1E2,1.24E2,3.48E2,1.81E2,2.13E2,1.71E2,1.7E2,1.25E2,1.5E2,1.98E2],"tree_param":{"num_deleted":"0","num_feature":"33","num_nodes":"29","size_leaf_vector":"0"}},{"base_weights":[1.6352463E1,1.9349709E1,1.2909417E1,1.3415167E1,2.0462748E1,1.0525427E1,1.4046504E1,1.9726004E1,2.6580044E1,1.1960901E1,7.4804916E0,1.2040822E1,1.5093902E1,1.8966896E1,2.3489988E1,1.0953503E1,1.3037336E1,9.68951E0,1.3684709E1,1.6220203E1,1.2686041E1,2.1557451E1,1.7793242E1,1.7707489E1,1.3160354E1,1.4738086E1,1.8512098E1,1.5293913E1,1.9945742E1,1.953446E1,1.5245431E1],"categories":[],"categories_nodes":[],"categories_segments":[],"categories_sizes":[],"default_left":[1,0,1,0,1,1,1,1,0,1,0,0,1,0,0,0,0,0,0,0,0,0,0,1,0,0,1,0,0,0,0],"id":9,"left_children":[1,3,5,-1,7,9,11,13,-1,15,-1,17,19,21,-1,-1,-1,-1,-1,23,-1,-1,25,27,-1,-1,29,-1,-1,-1,-1],"loss_changes":[2.2412125E4,7.467E3,2.6307344E3,0E0,3.9149688E3,1.374793E3,1.2698594E3,2.0774375E3,0E0,1.0226758E2,0E0,8.028008E2,1.0146172E3,1.8663438E3,0E0,0E0,0E0,0E0,0E0,1.145875E3,0E0,0E0,8.582031E2,7.8079297E2,0E0,0E0,1.0815156E3,0E0,0E0,0E0,0E0],"parents":[2147483647,0,0,1,1,2,2,4,4,5,5,6,6,7,7,9,9,11,11,12,12,13,13,19,19,22,22,23,23,26,26],"right_children":[2,4,6,-1,8,10,12,14,-1,16,-1,18,20,22,-1,-1,-1,-1,-1,24,-1,-1,26,28,-1,-1,30,-1,-1,-1,-1],"split_conditions":[6.955053E-2,-3.173117E-1,-5.5520487E-1,1.3415167E0,1.397315E0,-4.4362807E-1,-5.608749E-1,3.67306E-1,2.6580045E0,-2.934648E-1,7.480492E-1,4.9574205E-1,1.3012029E0,-9.4782954E-1,2.3489988E0,1.0953503E0,1.3037337E0,9.6895105E-1,1.3684709E0,1.0180823E0,1.2686042E0,2.1557453E0,-4.3663526E-1,3.705628E-1,1.3160354E0,1.4738086E0,7.2691107E-1,1.5293913E0,1.9945742E0,1.953446E0,1.5245432E0],"split_indices":[27,16,30,0,32,12,7,21,0,0,0,10,27,20,0,0,0,0,0,30,0,0,21,21,0,0,12,0,0,0,0],"split_type":[0,0,0,0,0,0,0,0,0,0,0,0,0,0,0,0,0,0,0,0,0,0,0,0,0,0,0,0,0,0,0],"sum_hessian":[2.195E3,1.171E3,1.024E3,1.87E2,9.84E2,3.34E2,6.9E2,8.82E2,1.02E2,2.25E2,1.09E2,2.41E2,4.49E2,7.39E2,1.43E2,1.22E2,1.03E2,1.02E2,1.39E2,3.02E2,1.47E2,2.25E2,5.14E2,2E2,1.02E2,1.02E2,4.12E2,1E2,1E2,3.1E2,1.02E2],"tree_param":{"num_deleted":"0","num_feature":"33","num_nodes":"31","size_leaf_vector":"0"}},{"base_weights":[1.4728623E1,1.772147E1,1.1910172E1,1.0799981E1,1.8517147E1,1.07198E1,1.40760975E1,2.4179338E1,1.768703E1,8.524419E0,1.1859015E1,1.1198353E1,1.6016241E1,1.7131477E1,2.1549301E1,1.0626751E1,5.266738E0,1.07941065E1,1.5769277E1,1.8443861E1,1.4063401E1,1.961084E1,1.5705398E1,8.8430605E0,1.2383717E1,1.28204565E1,1.700054E1,1.3865535E1,1.0798072E1,1.5745284E1,1.9516615E1,1.4235382E1,1.7125772E1],"categories":[],"categories_nodes":[],"categories_segments":[],"categories_sizes":[],"default_left":[1,0,1,0,0,1,1,0,1,1,1,0,1,0,0,0,0,0,0,0,0,0,1,0,1,0,1,0,0,1,0,0,0],"id":10,"left_children":[1,3,5,-1,7,9,11,-1,13,15,17,-1,19,21,-1,-1,-1,23,-1,-1,-1,-1,25,-1,27,-1,29,-1,-1,31,-1,-1,-1],"loss_changes":[1.8312656E4,5.6542188E3,2.7728438E3,0E0,4.0470312E3,1.7396562E3,2.0483516E3,0E0,1.4203594E3,1.690457E3,1.8368672E3,0E0,8.594336E2,2.2872344E3,0E0,0E0,0E0,1.0752266E3,0E0,0E0,0E0,0E0,1.5418984E3,0E0,3.390039E2,0E0,7.096875E2,0E0,0E0,2.1477344E2,0E0,0E0,0E0],"parents":[2147483647,0,0,1,1,2,2,4,4,5,5,6,6,8,8,9,9,10,10,12,12,13,13,17,17,22,22,24,24,26,26,29,29],"right_children":[2,4,6,-1,8,10,12,-1,14,16,18,-1,20,22,-1,-1,-1,24,-1,-1,-1,-1,26,-1,28,-1,30,-1,-1,32,-1,-1,-1],"split_conditions":[-6.4892545E-2,-5.4912156E-1,7.555105E-1,1.0799981E0,-1.3608034E0,-4.7231913E-1,-4.6879715E-1,2.417934E0,6.1217004E-1,-2.7065957E-1,-4.4845147E-3,1.1198353E0,7.2412413E-1,-4.03924E-1,2.15493E0,1.0626751E0,5.266738E-1,-7.300607E-1,1.5769277E0,1.8443861E0,1.4063401E0,1.961084E0,-3.9260513E-1,8.843061E-1,5.095302E-1,1.2820457E0,-5.8964753E-1,1.3865535E0,1.0798072E0,-4.3314108E-1,1.9516615E0,1.4235382E0,1.7125772E0],"split_indices":[27,16,1,0,28,0,12,0,21,6,12,0,27,15,0,0,0,9,0,0,0,0,1,0,27,0,29,0,0,27,0,0,0],"split_type":[0,0,0,0,0,0,0,0,0,0,0,0,0,0,0,0,0,0,0,0,0,0,0,0,0,0,0,0,0,0,0,0,0],"sum_hessian":[2.195E3,1.062E3,1.133E3,1.11E2,9.51E2,7.35E2,3.98E2,1.18E2,8.33E2,2.54E2,4.81E2,1.63E2,2.35E2,7.33E2,1E2,1.53E2,1.01E2,3.81E2,1E2,1.01E2,1.34E2,2.63E2,4.7E2,1.74E2,2.07E2,1.49E2,3.21E2,1.03E2,1.04E2,2.19E2,1.02E2,1.1E2,1.09E2],"tree_param":{"num_deleted":"0","num_feature":"33","num_nodes":"33","size_leaf_vector":"0"}},{"base_weights":[1.3267087E1,1.5659579E1,1.0405768E1,1.6905275E1,1.3116191E1,8.472807E0,1.1397486E1,2.2355429E1,1.606539E1,1.4482242E1,9.023375E0,9.673765E0,5.93214E0,1.0665292E1,1.3381285E1,1.3440302E1,1.7091503E1,1.2475755E1,1.5601799E1,1.0629243E1,8.709409E0,1.1765877E1,7.7966676E0,1.6451029E1,1.8900007E1,9.475219E0,1.3416786E1,1.7969452E1,1.5152819E1,1.2189791E1,1.45109415E1],"categories":[],"categories_nodes":[],"categories_segments":[],"categories_sizes":[],"default_left":[1,1,1,0,1,1,1,0,1,1,0,1,0,1,0,0,1,0,0,0,0,0,0,1,0,0,0,0,0,0,0],"id":11,"left_children":[1,3,5,7,9,11,13,-1,15,17,-1,19,-1,21,-1,-1,23,-1,-1,-1,-1,25,-1,27,-1,-1,29,-1,-1,-1,-1],"loss_changes":[1.4870156E4,3.5612188E3,1.8261406E3,3.2937188E3,2.0889453E3,9.922383E2,8.159453E2,0E0,1.6423594E3,4.7028125E2,0E0,1.21197266E2,0E0,1.4458047E3,0E0,0E0,2.6359375E2,0E0,0E0,0E0,0E0,1.1964609E3,0E0,4.649453E2,0E0,0E0,9.296094E1,0E0,0E0,0E0,0E0],"parents":[2147483647,0,0,1,1,2,2,3,3,4,4,5,5,6,6,8,8,9,9,11,11,13,13,16,16,21,21,23,23,26,26],"right_children":[2,4,6,8,10,12,14,-1,16,18,-1,20,-1,22,-1,-1,24,-1,-1,-1,-1,26,-1,28,-1,-1,30,-1,-1,-1,-1],"split_conditions":[9.1383845E-2,2.6266295E-1,-5.0489235E-1,-1.3608034E0,6.030389E-1,-4.4362807E-1,8.993587E-1,2.235543E0,-7.4556464E-1,-3.183093E-2,9.023375E-1,8.8680816E-1,5.93214E-1,4.466455E-1,1.3381284E0,1.3440303E0,-7.9808515E-1,1.2475755E0,1.56018E0,1.0629243E0,8.7094086E-1,-7.349975E-1,7.796668E-1,-6.9127566E-1,1.8900007E0,9.4752187E-1,2.1871105E-1,1.7969452E0,1.5152819E0,1.2189791E0,1.4510942E0],"split_indices":[27,2,30,28,0,12,3,0,3,3,0,3,0,4,0,0,24,0,0,0,0,9,0,8,0,0,10,0,0,0,0],"split_type":[0,0,0,0,0,0,0,0,0,0,0,0,0,0,0,0,0,0,0,0,0,0,0,0,0,0,0,0,0,0,0],"sum_hessian":[2.195E3,1.193E3,1.002E3,7.97E2,3.96E2,3.43E2,6.59E2,1.03E2,6.94E2,2.95E2,1.01E2,2.31E2,1.12E2,4.86E2,1.73E2,1.99E2,4.95E2,1.1E2,1.85E2,1.11E2,1.2E2,3.49E2,1.37E2,3.73E2,1.22E2,1.49E2,2E2,1.66E2,2.07E2,1E2,1E2],"tree_param":{"num_deleted":"0","num_feature":"33","num_nodes":"31","size_leaf_vector":"0"}},{"base_weights":[1.194983E1,1.4398731E1,9.643717E0,1.3527496E1,1.8207474E1,8.5700865E0,1.1504374E1,1.5799148E1,1.2295866E1,9.103298E0,5.1962166E0,8.735391E0,1.3245692E1,1.6822914E1,1.3718148E1,9.237275E0,1.3882549E1,7.489875E0,1.0815452E1,1.5466245E1,1.1488294E1,1.3249048E1,1.5347287E1,8.764522E0,5.0649605E0,1.29244375E1,8.177229E0,1.3928612E1,1.2067926E1,7.838452E0,9.641934E0],"categories":[],"categories_nodes":[],"categories_segments":[],"categories_sizes":[],"default_left":[1,1,1,0,0,0,1,1,1,0,0,0,1,0,0,0,1,1,1,0,0,1,0,1,0,0,0,0,0,0,0],"id":12,"left_children":[1,3,5,7,-1,9,11,13,15,17,-1,-1,19,-1,-1,-1,21,23,25,-1,-1,27,-1,29,-1,-1,-1,-1,-1,-1,-1],"loss_changes":[1.22629375E4,3.2810469E3,2.1667422E3,2.2370625E3,0E0,1.2533633E3,1.8708281E3,4.126172E2,2.6282734E3,1.6399883E3,0E0,0E0,8.018203E2,0E0,0E0,0E0,1.4184375E2,9.5706055E2,1.5635078E3,0E0,0E0,4.6214844E1,0E0,9.586914E1,0E0,0E0,0E0,0E0,0E0,0E0,0E0],"parents":[2147483647,0,0,1,1,2,2,3,3,5,5,6,6,7,7,8,8,9,9,12,12,16,16,17,17,18,18,21,21,23,23],"right_children":[2,4,6,8,-1,10,12,14,16,18,-1,-1,20,-1,-1,-1,22,24,26,-1,-1,28,-1,30,-1,-1,-1,-1,-1,-1,-1],"split_conditions":[-6.4892545E-2,7.9499185E-1,7.263931E-1,-4.231457E-1,1.8207474E0,8.7640667E-1,-5.078349E-1,-3.189077E-2,-3.9260513E-1,-2.9017502E-1,5.196217E-1,8.735391E-1,7.2412413E-1,1.6822914E0,1.3718148E0,9.237275E-1,5.1266426E-1,-4.551046E-1,4.8264205E-1,1.5466245E0,1.1488293E0,4.3663034E-1,1.5347288E0,-1.2771461E0,5.064961E-1,1.2924438E0,8.177229E-1,1.3928612E0,1.2067927E0,7.838452E-1,9.6419346E-1],"split_indices":[27,6,1,15,0,15,12,2,1,15,0,0,27,0,0,0,1,12,27,0,0,31,0,12,0,0,0,0,0,0,0],"split_type":[0,0,0,0,0,0,0,0,0,0,0,0,0,0,0,0,0,0,0,0,0,0,0,0,0,0,0,0,0,0,0],"sum_hessian":[2.195E3,1.062E3,1.133E3,8.68E2,1.94E2,7.22E2,4.11E2,3.01E2,5.67E2,6.22E2,1E2,1.61E2,2.5E2,1.97E2,1.04E2,1.96E2,3.71E2,3.23E2,2.99E2,1.07E2,1.43E2,2.66E2,1.05E2,2.1E2,1.13E2,1.64E2,1.35E2,1.62E2,1.04E2,1.07E2,1.03E2],"tree_param":{"num_deleted":"0","num_feature":"33","num_nodes":"31","size_leaf_vector":"0"}},{"base_weights":[1.076322E1,1.2881774E1,8.800211E0,6.734676E0,1.38706255E1,8.261455E0,1.1814303E1,1.281977E1,1.7297419E1,9.198678E0,5.761673E0,1.3492418E1,1.0582773E1,1.3028859E1,2.113316E1,7.1099186E0,9.932138E0,3.138799E0,8.52181E0,1.4420476E1,1.2756831E1,1.0974822E1,7.428859E0,1.1875527E1,1.3641305E1,1.2341206E1,8.934063E0,9.960586E0,1.4953193E1],"categories":[],"categories_nodes":[],"categories_segments":[],"categories_sizes":[],"default_left":[1,0,1,0,1,0,0,1,1,0,1,0,0,0,0,0,0,0,0,0,1,1,0,0,0,1,0,0,0],"id":13,"left_children":[1,3,5,-1,7,9,-1,11,13,15,17,19,-1,-1,-1,-1,21,-1,-1,-1,23,25,-1,-1,-1,27,-1,-1,-1],"loss_changes":[9.019203E3,6.3134062E3,1.7584766E3,0E0,3.0444062E3,2.2265938E3,0E0,9.075E2,3.1630078E3,1.0109922E3,1.9134355E3,1.7990625E2,0E0,0E0,0E0,0E0,1.2757383E3,0E0,0E0,0E0,7.652344E1,9.0752734E2,0E0,0E0,0E0,1.1941797E3,0E0,0E0,0E0],"parents":[2147483647,0,0,1,1,2,2,4,4,5,5,7,7,8,8,9,9,10,10,11,11,16,16,20,20,21,21,25,25],"right_children":[2,4,6,-1,8,10,-1,12,14,16,18,20,-1,-1,-1,-1,22,-1,-1,-1,24,26,-1,-1,-1,28,-1,-1,-1],"split_conditions":[-6.0306877E-1,-4.1345328E-1,1.0388434E0,6.734676E-1,-2.9009736E-1,3.4051787E-2,1.1814303E0,8.220171E-1,5.0216925E-1,-4.4592792E-1,3.6094403E-1,-9.1746324E-1,1.0582774E0,1.3028859E0,2.113316E0,7.1099186E-1,1.0242434E0,3.138799E-1,8.5218096E-1,1.4420476E0,-2.587236E-1,1.6504538E-1,7.4288595E-1,1.1875528E0,1.3641305E0,-2.0702517E-1,8.9340633E-1,9.960586E-1,1.4953192E0],"split_indices":[28,16,11,0,19,16,0,31,0,14,14,22,0,0,0,0,28,0,0,0,21,17,0,0,0,20,0,0,0],"split_type":[0,0,0,0,0,0,0,0,0,0,0,0,0,0,0,0,0,0,0,0,0,0,0,0,0,0,0,0,0],"sum_hessian":[2.195E3,1.053E3,1.142E3,1.47E2,9.06E2,9.72E2,1.7E2,6.97E2,2.09E2,7.05E2,2.67E2,5.32E2,1.65E2,1.01E2,1.08E2,1.86E2,5.19E2,1.38E2,1.29E2,2.27E2,3.05E2,3.64E2,1.55E2,1.6E2,1.45E2,2.15E2,1.49E2,1.15E2,1E2],"tree_param":{"num_deleted":"0","num_feature":"33","num_nodes":"29","size_leaf_vector":"0"}},{"base_weights":[9.694333E0,1.1602269E1,7.926477E0,5.4314795E0,1.2404206E1,5.9478765E0,8.698599E0,1.6446707E1,1.182072E1,9.587597E0,4.058029E0,6.4896383E0,9.901468E0,9.714557E0,1.2103855E1,5.948966E0,1.9048445E0,8.039745E0,4.2325478E0,7.2481833E0,1.0846996E1,1.2546814E1,1.0920466E1,9.79881E0,1.248055E1,1.313886E1,1.1060152E1,9.386936E0,1.2376241E1,1.1757976E1,8.173406E0],"categories":[],"categories_nodes":[],"categories_segments":[],"categories_sizes":[],"default_left":[1,0,1,0,1,1,0,0,1,0,0,1,1,0,1,0,0,0,0,0,1,1,1,1,0,0,0,0,0,0,0],"id":14,"left_children":[1,3,5,-1,7,9,11,-1,13,-1,15,17,19,-1,21,-1,-1,-1,-1,-1,23,25,27,29,-1,-1,-1,-1,-1,-1,-1],"loss_changes":[7.315078E3,5.148422E3,1.6944453E3,0E0,2.0039375E3,2.1897334E3,2.1145547E3,0E0,3.7021875E2,0E0,8.640486E2,9.876006E2,1.2485156E3,0E0,2.3882812E2,0E0,0E0,0E0,0E0,0E0,5.420664E2,3.0796875E2,3.3701758E2,6.7134766E2,0E0,0E0,0E0,0E0,0E0,0E0,0E0],"parents":[2147483647,0,0,1,1,2,2,4,4,5,5,6,6,8,8,10,10,11,11,12,12,14,14,20,20,21,21,22,22,23,23],"right_children":[2,4,6,-1,8,10,12,-1,14,-1,16,18,20,-1,22,-1,-1,-1,-1,-1,24,26,28,30,-1,-1,-1,-1,-1,-1,-1],"split_conditions":[-6.0306877E-1,-5.700158E-1,-4.4554245E-1,5.43148E-1,-1.2115695E0,-1.5516632E0,-7.349975E-1,1.6446707E0,-4.4583023E-1,9.587597E-1,-6.5101665E-1,2.851137E-1,-6.377847E-1,9.714557E-1,8.3436376E-1,5.948966E-1,1.9048445E-1,8.0397457E-1,4.232548E-1,7.2481835E-1,4.4627815E-1,5.543773E-1,1.2524183E0,2.9217178E-1,1.248055E0,1.313886E0,1.1060152E0,9.3869364E-1,1.237624E0,1.1757976E0,8.1734055E-1],"split_indices":[28,16,29,0,4,30,9,0,10,0,16,6,31,0,31,0,0,0,0,0,23,4,31,18,0,0,0,0,0,0,0],"split_type":[0,0,0,0,0,0,0,0,0,0,0,0,0,0,0,0,0,0,0,0,0,0,0,0,0,0,0,0,0,0,0],"sum_hessian":[2.195E3,1.053E3,1.142E3,1.22E2,9.31E2,3.23E2,8.19E2,1.14E2,8.17E2,1.09E2,2.14E2,2.91E2,5.28E2,1.01E2,7.16E2,1.13E2,1.01E2,1.71E2,1.2E2,1.41E2,3.87E2,5.14E2,2.02E2,2.4E2,1.47E2,3.62E2,1.52E2,1.02E2,1E2,1.06E2,1.34E2],"tree_param":{"num_deleted":"0","num_feature":"33","num_nodes":"31","size_leaf_vector":"0"}},{"base_weights":[8.73159E0,1.024133E1,6.9157E0,9.636315E0,1.40746155E1,3.7872448E0,7.266831E0,7.1397295E0,1.0284455E1,5.1439896E0,8.156933E0,5.6662774E0,8.657448E0,1.2282279E1,9.277742E0,3.6006851E0,6.6154275E0,6.101866E0,8.813306E0,1.0975653E1,1.4352385E1,8.310403E0,1.0456821E1,1.0604188E1,7.008088E0,6.1881576E0,9.382916E0,1.1363197E1,9.614935E0,1.2269424E1,8.24041E0,5.613458E0,8.747722E0,8.551419E0,1.0129746E1],"categories":[],"categories_nodes":[],"categories_segments":[],"categories_sizes":[],"default_left":[1,1,1,1,0,0,1,1,0,0,1,0,0,1,1,0,0,0,0,0,0,0,1,0,1,0,0,0,0,0,0,0,0,0,0],"id":15,"left_children":[1,3,5,7,-1,-1,9,11,13,15,17,-1,-1,19,21,-1,-1,-1,23,-1,-1,25,27,29,31,-1,33,-1,-1,-1,-1,-1,-1,-1,-1],"loss_changes":[5.949547E3,2.6404531E3,1.0709766E3,1.6045781E3,0E0,0E0,1.6548555E3,4.3621777E2,1.5372734E3,5.847744E2,7.973711E2,0E0,0E0,5.781953E2,5.4040625E2,0E0,0E0,0E0,1.4645625E3,0E0,0E0,6.407129E2,7.693359E1,8.3178516E2,5.331699E2,0E0,3.8816406E1,0E0,0E0,0E0,0E0,0E0,0E0,0E0,0E0],"parents":[2147483647,0,0,1,1,2,2,3,3,6,6,7,7,8,8,9,9,10,10,13,13,14,14,18,18,21,21,22,22,23,23,24,24,26,26],"right_children":[2,4,6,8,-1,-1,10,12,14,16,18,-1,-1,20,22,-1,-1,-1,24,-1,-1,26,28,30,32,-1,34,-1,-1,-1,-1,-1,-1,-1,-1],"split_conditions":[-3.2771307E-1,1.035992E0,-1.4809525E0,-4.2299676E-1,1.4074615E0,3.787245E-1,-7.041238E-1,-6.7532283E-1,-5.740807E-1,4.6913588E-1,-4.294352E-1,5.6662774E-1,8.6574477E-1,-9.1645306E-1,-3.94655E-3,3.6006853E-1,6.615428E-1,6.101866E-1,2.2128627E-1,1.0975653E0,1.4352385E0,2.640408E-1,1.19237155E-1,9.9484277E-1,5.095538E-1,6.188158E-1,1.6038898E-1,1.1363198E0,9.614935E-1,1.2269424E0,8.24041E-1,5.613458E-1,8.747722E-1,8.5514194E-1,1.0129746E0],"split_indices":[28,11,15,10,0,0,7,3,15,10,3,0,0,17,3,0,0,0,15,0,0,19,2,28,11,0,20,0,0,0,0,0,0,0,0],"split_type":[0,0,0,0,0,0,0,0,0,0,0,0,0,0,0,0,0,0,0,0,0,0,0,0,0,0,0,0,0,0,0,0,0,0,0],"sum_hessian":[2.195E3,1.196E3,9.99E2,1.036E3,1.6E2,1.02E2,8.97E2,2.16E2,8.2E2,2.67E2,6.3E2,1.12E2,1.04E2,2.71E2,5.49E2,1.32E2,1.35E2,1.55E2,4.75E2,1.7E2,1.01E2,3.06E2,2.43E2,2.36E2,2.39E2,1.05E2,2.01E2,1.11E2,1.32E2,1.36E2,1E2,1.35E2,1.04E2,1.01E2,1E2],"tree_param":{"num_deleted":"0","num_feature":"33","num_nodes":"35","size_leaf_vector":"0"}},{"base_weights":[7.865469E0,9.421328E0,6.4238763E0,4.6211634E0,1.0194209E1,6.037229E0,1.0310765E1,1.4956839E1,9.578846E0,6.793363E0,4.377907E0,9.977364E0,7.6117725E0,5.20645E0,8.174475E0,1.1835914E0,6.7972074E0,9.524749E0,1.1863708E1,5.9566975E0,3.847766E0,4.8657746E0,9.354808E0,1.0790703E1,8.712715E0,6.8067307E0,5.1513467E0,7.3702493E0,1.0456812E1,8.095438E0,9.325745E0],"categories":[],"categories_nodes":[],"categories_segments":[],"categories_sizes":[],"default_left":[1,0,0,0,1,1,0,0,1,1,0,1,0,1,1,0,0,0,0,1,0,0,1,0,1,0,0,0,0,0,0],"id":16,"left_children":[1,3,5,-1,7,9,-1,-1,11,13,15,17,-1,19,21,-1,-1,23,-1,25,-1,-1,27,-1,29,-1,-1,-1,-1,-1,-1],"loss_changes":[4.8649062E3,3.8631875E3,1.6555195E3,0E0,2.5149219E3,1.277625E3,0E0,0E0,5.558906E2,1.5223164E3,2.5344692E3,4.5646875E2,0E0,3.185625E2,1.4385195E3,0E0,0E0,4.641836E2,0E0,1.1143506E2,0E0,0E0,5.3310156E2,0E0,5.165039E1,0E0,0E0,0E0,0E0,0E0,0E0],"parents":[2147483647,0,0,1,1,2,2,4,4,5,5,8,8,9,9,10,10,11,11,13,13,14,14,17,17,19,19,22,22,24,24],"right_children":[2,4,6,-1,8,10,-1,-1,12,14,16,18,-1,20,22,-1,-1,24,-1,26,-1,-1,28,-1,30,-1,-1,-1,-1,-1,-1],"split_conditions":[-6.0306877E-1,-4.1345328E-1,1.4983947E0,4.6211633E-1,-1.4170263E0,3.4051787E-2,1.0310766E0,1.4956839E0,1.1109154E0,-7.402104E-1,5.092641E-1,9.380931E-3,7.6117724E-1,1.5251663E-1,-5.7881963E-1,1.1835914E-1,6.7972076E-1,-8.613149E-1,1.1863707E0,-5.6428E-1,3.847766E-1,4.8657748E-1,1.7257673E-1,1.0790703E0,-5.450368E-1,6.8067306E-1,5.151347E-1,7.3702496E-1,1.0456812E0,8.095438E-1,9.3257445E-1],"split_indices":[28,16,24,0,3,16,0,0,12,12,16,21,0,2,7,0,0,21,0,5,0,0,4,0,23,0,0,0,0,0,0],"split_type":[0,0,0,0,0,0,0,0,0,0,0,0,0,0,0,0,0,0,0,0,0,0,0,0,0,0,0,0,0,0,0],"sum_hessian":[2.195E3,1.053E3,1.142E3,1.47E2,9.06E2,1.041E3,1.01E2,1.01E2,8.05E2,7.13E2,3.28E2,6.66E2,1.39E2,3.34E2,3.79E2,1.42E2,1.86E2,5.42E2,1.24E2,2.13E2,1.21E2,1.01E2,2.78E2,2.07E2,3.35E2,1E2,1.13E2,1.02E2,1.76E2,1.74E2,1.61E2],"tree_param":{"num_deleted":"0","num_feature":"33","num_nodes":"31","size_leaf_vector":"0"}},{"base_weights":[7.0845714E0,8.487156E0,5.40783E0,7.8881965E0,1.2699557E1,3.5209918E0,6.080582E0,4.798775E0,8.347528E0,5.5616436E0,1.8541822E-1,7.6665277E0,4.8139997E0,1.0674593E1,8.037675E0,8.85985E0,4.99691E0,3.7572048E0,8.041353E0,8.394544E0,5.5135274E0,7.004822E0,1.029935E1,5.3006997E0,1.1963747E0,6.691297E0,8.811511E0,1.0508701E1,8.299286E0,8.698357E0,6.916887E0,7.5597887E0,9.155529E0,8.447959E0,9.763218E0],"categories":[],"categories_nodes":[],"categories_segments":[],"categories_sizes":[],"default_left":[1,1,1,1,0,1,1,0,1,0,0,1,0,0,1,1,0,1,0,0,0,0,0,0,0,0,1,0,1,0,0,0,1,0,0],"id":17,"left_children":[1,3,5,7,-1,9,11,-1,13,-1,-1,15,17,-1,19,21,-1,23,-1,25,-1,-1,-1,-1,-1,-1,27,-1,29,31,-1,-1,33,-1,-1],"loss_changes":[5.1186016E3,2.9123516E3,1.2517734E3,1.4471328E3,0E0,1.8095627E3,1.4455352E3,0E0,5.710781E2,0E0,0E0,9.942715E2,1.3783867E3,0E0,6.815508E2,5.260039E2,0E0,1.230831E3,0E0,4.424414E2,0E0,0E0,0E0,0E0,0E0,0E0,4.0309375E2,0E0,1.8146875E2,1.0568359E2,0E0,0E0,1.8566406E1,0E0,0E0],"parents":[2147483647,0,0,1,1,2,2,3,3,5,5,6,6,8,8,11,11,12,12,14,14,15,15,17,17,19,19,26,26,28,28,29,29,32,32],"right_children":[2,4,6,8,-1,10,12,-1,14,-1,-1,16,18,-1,20,22,-1,24,-1,26,-1,-1,-1,-1,-1,-1,28,-1,30,32,-1,-1,34,-1,-1],"split_conditions":[9.1383845E-2,1.035992E0,-1.8024081E-1,-1.3973303E0,1.2699558E0,-5.604396E-1,8.793894E-1,4.7987753E-1,-1.4783199E0,5.561644E-1,1.8541822E-2,1.4134159E0,9.0112114E-1,1.0674593E0,1.1208596E0,-4.6526366E-1,4.99691E-1,-1.5498377E-1,8.041353E-1,-6.0926276E-1,5.5135274E-1,7.004822E-1,1.029935E0,5.3007E-1,1.1963747E-1,6.691297E-1,-8.089321E-1,1.0508702E0,6.926477E-1,-1.049522E-1,6.916887E-1,7.559789E-1,-3.3557785E-1,8.447959E-1,9.763218E-1],"split_indices":[27,11,1,1,0,12,27,0,25,0,0,4,29,0,12,32,0,6,0,24,0,0,0,0,0,0,11,0,31,24,0,0,27,0,0],"split_type":[0,0,0,0,0,0,0,0,0,0,0,0,0,0,0,0,0,0,0,0,0,0,0,0,0,0,0,0,0,0,0,0,0,0,0],"sum_hessian":[2.195E3,1.193E3,1.002E3,1.047E3,1.46E2,2.65E2,7.37E2,1.37E2,9.1E2,1.64E2,1.01E2,3.25E2,4.12E2,1.03E2,8.07E2,2.23E2,1.02E2,3.12E2,1E2,7.05E2,1.02E2,1E2,1.23E2,1.94E2,1.18E2,1.42E2,5.63E2,1.26E2,4.37E2,3.35E2,1.02E2,1.01E2,2.34E2,1.15E2,1.19E2],"tree_param":{"num_deleted":"0","num_feature":"33","num_nodes":"35","size_leaf_vector":"0"}},{"base_weights":[6.3818593E0,4.843489E0,7.5422235E0,3.2665162E0,5.7836227E0,8.064692E0,2.7754877E0,1.1382496E0,4.3303366E0,3.4861677E0,6.372566E0,1.26629505E1,7.574419E0,5.415841E0,3.0059295E0,5.1763024E0,7.5367584E0,7.140492E0,1.145203E1,7.291702E0,3.190803E0,6.240916E0,9.067122E0,8.222556E0,5.893736E0,9.204754E0,7.4592667E0,7.026963E0,2.9989314E0,8.495996E0,9.783548E0,6.2561755E0,9.386482E0,4.6700306E0,8.132338E0,9.3097105E0,6.9229746E0],"categories":[],"categories_nodes":[],"categories_segments":[],"categories_sizes":[],"default_left":[1,0,0,0,1,1,0,0,0,0,0,0,1,0,0,0,1,1,0,0,0,0,0,0,1,0,1,1,0,0,0,0,0,0,0,0,0],"id":18,"left_children":[1,3,5,7,9,11,-1,-1,13,-1,15,-1,17,-1,-1,19,21,23,-1,-1,-1,-1,-1,25,27,29,31,33,-1,-1,-1,-1,-1,-1,35,-1,-1],"loss_changes":[3.8834766E3,1.3850957E3,3.0907031E3,8.0108813E2,7.788008E2,2.4425469E3,0E0,0E0,3.2444385E2,0E0,6.155488E2,0E0,1.6344766E3,0E0,0E0,9.637627E2,4.1142676E2,1.1926836E3,0E0,0E0,0E0,0E0,0E0,2.986953E2,1.3928096E3,3.0253906E0,5.9280664E2,7.6705664E2,0E0,0E0,0E0,0E0,0E0,0E0,2.331377E2,0E0,0E0],"parents":[2147483647,0,0,1,1,2,2,3,3,4,4,5,5,8,8,10,10,12,12,15,15,16,16,17,17,23,23,24,24,25,25,26,26,27,27,34,34],"right_children":[2,4,6,8,10,12,-1,-1,14,-1,16,-1,18,-1,-1,20,22,24,-1,-1,-1,-1,-1,26,28,30,32,34,-1,-1,-1,-1,-1,-1,36,-1,-1],"split_conditions":[-1.0754618E-1,-4.1311878E-1,1.0619221E0,-7.6162183E-1,-9.7804517E-1,-1.2115695E0,2.7754876E-1,1.1382496E-1,6.471369E-1,3.4861678E-1,6.0559765E-2,1.2662951E0,5.7988584E-1,5.4158413E-1,3.0059296E-1,2.9164314E-1,-9.813307E-2,1.0811964E-1,1.145203E0,7.291702E-1,3.1908032E-1,6.2409157E-1,9.0671223E-1,-3.992104E-1,9.0282667E-1,-7.8070223E-1,-1.1810045E-1,-2.055048E-1,2.9989314E-1,8.4959966E-1,9.783549E-1,6.2561756E-1,9.386482E-1,4.6700308E-1,-2.5755304E-1,9.309711E-1,6.9229746E-1],"split_indices":[32,30,15,9,7,4,0,0,28,0,9,0,21,0,0,15,7,2,0,0,0,0,0,15,32,30,21,7,0,0,0,0,0,0,23,0,0],"split_type":[0,0,0,0,0,0,0,0,0,0,0,0,0,0,0,0,0,0,0,0,0,0,0,0,0,0,0,0,0,0,0,0,0,0,0,0,0],"sum_hessian":[2.195E3,9.46E2,1.249E3,3.55E2,5.91E2,1.125E3,1.24E2,1.19E2,2.36E2,1.22E2,4.69E2,1.06E2,1.019E3,1.28E2,1.08E2,2.34E2,2.35E2,9.19E2,1E2,1.12E2,1.22E2,1.3E2,1.05E2,4.89E2,4.3E2,2.09E2,2.8E2,3.08E2,1.22E2,1.01E2,1.08E2,1.75E2,1.05E2,1E2,2.08E2,1.02E2,1.06E2],"tree_param":{"num_deleted":"0","num_feature":"33","num_nodes":"37","size_leaf_vector":"0"}},{"base_weights":[5.7492995E0,6.73693E0,4.140781E0,4.224381E0,7.4056587E0,3.4082143E0,6.1094656E0,1.7244582E0,5.5449543E0,6.6640477E0,9.84285E0,4.4202137E0,1.6310359E0,7.780381E0,4.457905E0,7.579325E0,5.24696E0,1.1714685E1,7.048705E0,3.0765517E0,5.5811267E0,-7.219202E-1,4.503665E0,8.075302E0,5.6413236E0,1.1222717E0,7.1385703E0,7.1497345E0,3.9743044E0,9.041685E0,6.5367928E0,8.265295E0,5.759029E0,7.6661444E0,1.079686E1],"categories":[],"categories_nodes":[],"categories_segments":[],"categories_sizes":[],"default_left":[1,0,1,1,1,0,1,0,0,1,1,0,0,0,0,0,1,0,0,0,1,0,0,1,0,0,1,0,0,1,0,0,0,0,0],"id":19,"left_children":[1,3,5,7,9,11,13,-1,-1,15,17,19,21,-1,-1,23,25,-1,-1,-1,27,-1,-1,29,-1,-1,31,-1,-1,33,-1,-1,-1,-1,-1],"loss_changes":[3.4607188E3,2.252129E3,1.1877354E3,9.412217E2,1.8719922E3,1.095273E3,5.8899023E2,0E0,0E0,1.0302773E3,1.2145098E3,5.9118066E2,1.5173052E3,0E0,0E0,4.3408594E2,2.5433418E3,0E0,0E0,0E0,4.9584375E2,0E0,0E0,5.2817773E2,0E0,0E0,3.0057715E2,0E0,0E0,4.9666602E2,0E0,0E0,0E0,0E0,0E0],"parents":[2147483647,0,0,1,1,2,2,3,3,4,4,5,5,6,6,9,9,10,10,11,11,12,12,15,15,16,16,20,20,23,23,26,26,29,29],"right_children":[2,4,6,8,10,12,14,-1,-1,16,18,20,22,-1,-1,24,26,-1,-1,-1,28,-1,-1,30,-1,-1,32,-1,-1,34,-1,-1,-1,-1,-1],"split_conditions":[3.2624775E-1,-3.020493E-1,5.639175E-1,-9.210502E-1,9.6163724E-4,-2.544313E-1,1.3012029E0,1.7244582E-1,5.5449545E-1,-1.7141092E-1,1.162851E0,-7.7865615E-2,7.8391683E-1,7.7803814E-1,4.457905E-1,5.9883255E-1,-2.601564E-1,1.1714686E0,7.048705E-1,3.076552E-1,7.874142E-1,-7.219202E-2,4.503665E-1,-6.4401716E-1,5.641324E-1,1.12227164E-1,6.9474137E-1,7.1497345E-1,3.9743045E-1,-1.0763631E0,6.536793E-1,8.265295E-1,5.759029E-1,7.6661444E-1,1.079686E0],"split_indices":[27,16,7,3,19,16,27,0,0,14,17,14,16,0,0,16,1,0,0,0,27,0,0,1,0,0,12,0,0,18,0,0,0,0,0],"split_type":[0,0,0,0,0,0,0,0,0,0,0,0,0,0,0,0,0,0,0,0,0,0,0,0,0,0,0,0,0,0,0,0,0,0,0],"sum_hessian":[2.195E3,1.358E3,8.37E2,2.87E2,1.071E3,6.12E2,2.25E2,1E2,1.87E2,8.24E2,2.47E2,3.89E2,2.23E2,1.1E2,1.15E2,4.98E2,3.26E2,1.46E2,1.01E2,1.82E2,2.07E2,1.23E2,1E2,3.94E2,1.04E2,1.03E2,2.23E2,1.03E2,1.04E2,2.39E2,1.55E2,1.2E2,1.03E2,1.37E2,1.02E2],"tree_param":{"num_deleted":"0","num_feature":"33","num_nodes":"35","size_leaf_vector":"0"}},{"base_weights":[5.1790166E0,6.223539E0,3.9304233E0,5.766523E0,1.0812416E1,2.2298303E0,4.5163603E0,7.3648973E0,5.0850067E0,3.605504E0,2.7305007E-1,4.994108E0,2.1296947E0,9.252951E0,6.2765365E0,2.3663516E0,5.839012E0,5.8307943E0,3.332812E0,7.005359E0,5.536836E0,7.5443254E0,4.645658E0,6.712011E0,3.0596142E0,1.7373146E0,4.7674704E0,6.1403375E0,9.452461E0,5.8009243E0,2.6737027E0,4.1628785E0,8.51988E0,5.154689E0,6.312654E0],"categories":[],"categories_nodes":[],"categories_segments":[],"categories_sizes":[],"default_left":[1,1,0,0,0,1,1,1,0,0,0,1,0,0,1,0,0,0,0,0,0,1,1,1,0,0,0,0,0,0,0,0,0,0,0],"id":20,"left_children":[1,3,5,7,-1,9,11,13,15,-1,-1,17,-1,-1,19,-1,21,23,25,-1,-1,27,29,31,-1,-1,-1,-1,-1,33,-1,-1,-1,-1,-1],"loss_changes":[2.8395234E3,2.4416914E3,9.893594E2,1.1477266E3,0E0,6.9621545E2,8.3883105E2,6.056504E2,1.5563906E3,0E0,0E0,8.4235547E2,0E0,0E0,7.334668E1,0E0,1.1839434E3,9.831299E2,4.72406E2,0E0,0E0,5.983125E2,7.9322705E2,1.3977764E3,0E0,0E0,0E0,0E0,0E0,4.1206543E1,0E0,0E0,0E0,0E0,0E0],"parents":[2147483647,0,0,1,1,2,2,3,3,5,5,6,6,7,7,8,8,11,11,14,14,16,16,17,17,18,18,21,21,22,22,23,23,29,29],"right_children":[2,4,6,8,-1,10,12,14,16,-1,-1,18,-1,-1,20,-1,22,24,26,-1,-1,28,30,32,-1,-1,-1,-1,-1,34,-1,-1,-1,-1,-1],"split_conditions":[9.1383845E-2,5.723763E-1,-3.115896E-1,-5.317962E-1,1.0812416E0,-6.9829506E-1,1.3316572E0,-1.2159114E0,-5.543049E-1,3.605504E-1,2.7305007E-2,1.2450476E0,2.1296947E-1,9.2529505E-1,1.7897666E-1,2.3663516E-1,5.422919E-1,1.042235E0,1.113595E0,7.0053595E-1,5.5368364E-1,4.6671325E-1,9.457646E-1,3.211885E-2,3.0596143E-1,1.7373146E-1,4.7674704E-1,6.1403376E-1,9.4524616E-1,-9.956633E-2,2.6737028E-1,4.1628787E-1,8.51988E-1,5.154689E-1,6.312654E-1],"split_indices":[27,29,29,15,0,6,6,27,21,0,0,27,0,0,0,0,29,15,21,0,0,6,32,21,0,0,0,0,0,14,0,0,0,0,0],"split_type":[0,0,0,0,0,0,0,0,0,0,0,0,0,0,0,0,0,0,0,0,0,0,0,0,0,0,0,0,0,0,0,0,0,0,0],"sum_hessian":[2.195E3,1.193E3,1.002E3,1.087E3,1.06E2,2.58E2,7.44E2,3.22E2,7.65E2,1.51E2,1.07E2,6.19E2,1.25E2,1.15E2,2.07E2,1.67E2,5.98E2,4.1E2,2.09E2,1E2,1.07E2,2.44E2,3.54E2,3.1E2,1E2,1E2,1.09E2,1.43E2,1.01E2,2.22E2,1.32E2,1.3E2,1.8E2,1.03E2,1.19E2],"tree_param":{"num_deleted":"0","num_feature":"33","num_nodes":"35","size_leaf_vector":"0"}},{"base_weights":[4.665348E0,5.4811893E0,3.3367164E0,5.0184712E0,1.0090137E1,3.8448308E0,1.2566099E0,5.4138575E0,6.589905E-1,2.1432881E0,4.4201703E0,4.964679E0,9.032449E0,3.3381097E0,5.4551935E0,2.699152E0,5.4789195E0,4.0484743E0,2.3156006E0,6.951194E0,3.2518482E0,6.762957E0,4.7934647E0,7.5796423E0,5.708406E0,5.172532E0,3.1349697E0,5.789415E0,3.4305766E0,6.6876974E0,5.3546586E0,4.5311813E0,6.2620625E0],"categories":[],"categories_nodes":[],"categories_segments":[],"categories_sizes":[],"default_left":[1,1,1,0,0,0,0,1,0,0,1,1,0,1,0,0,0,0,0,0,0,1,1,0,0,1,0,0,0,0,0,0,0],"id":21,"left_children":[1,3,5,7,-1,9,-1,11,-1,-1,13,15,-1,17,19,-1,21,-1,-1,-1,-1,23,25,-1,-1,27,-1,29,-1,-1,31,-1,-1],"loss_changes":[2.3620664E3,2.847625E3,8.808779E2,2.128621E3,0E0,6.4936914E2,0E0,1.7983516E3,0E0,0E0,5.440088E2,1.1630527E3,0E0,1.7076099E2,8.179282E2,0E0,6.919453E2,0E0,0E0,0E0,0E0,2.0132422E2,3.2327344E2,0E0,0E0,4.5080566E2,0E0,8.994141E1,0E0,0E0,1.3750977E2,0E0,0E0],"parents":[2147483647,0,0,1,1,2,2,3,3,5,5,7,7,10,10,11,11,13,13,14,14,16,16,21,21,22,22,25,25,27,27,30,30],"right_children":[2,4,6,8,-1,10,-1,12,-1,-1,14,16,-1,18,20,-1,22,-1,-1,-1,-1,24,26,-1,-1,28,-1,30,-1,-1,32,-1,-1],"split_conditions":[3.2624775E-1,5.8371115E-1,1.2899984E0,8.557224E-1,1.0090137E0,-3.0216223E-1,1.25661E-1,8.0903304E-1,6.589905E-2,2.1432881E-1,-7.123357E-1,-6.5519047E-1,9.032449E-1,-2.365144E-1,7.104716E-1,2.699152E-1,-5.8883727E-1,4.0484744E-1,2.3156007E-1,6.951194E-1,3.2518482E-1,6.976684E-1,8.5006E-1,7.5796425E-1,5.708406E-1,-5.476997E-2,3.1349698E-1,1.2872568E-1,3.4305766E-1,6.687698E-1,4.615329E-1,4.5311815E-1,6.262063E-1],"split_indices":[27,29,8,15,0,29,0,6,0,0,12,5,0,4,15,0,23,0,0,0,0,32,32,0,0,27,0,29,0,0,16,0,0],"split_type":[0,0,0,0,0,0,0,0,0,0,0,0,0,0,0,0,0,0,0,0,0,0,0,0,0,0,0,0,0,0,0,0,0],"sum_hessian":[2.195E3,1.358E3,8.37E2,1.236E3,1.22E2,6.72E2,1.65E2,1.133E3,1.03E2,1.71E2,5.01E2,1.01E3,1.23E2,2.47E2,2.54E2,1.88E2,8.22E2,1.44E2,1.03E2,1.5E2,1.04E2,2.83E2,5.39E2,1.56E2,1.27E2,4.37E2,1.02E2,3.21E2,1.16E2,1E2,2.21E2,1.19E2,1.02E2],"tree_param":{"num_deleted":"0","num_feature":"33","num_nodes":"33","size_leaf_vector":"0"}},{"base_weights":[4.2024465E0,3.1780624E0,4.9751577E0,1.8978133E0,3.9425735E0,5.4135513E0,9.863085E-1,3.6175916E-1,2.8457298E0,2.0600286E0,4.4268513E0,4.91433E0,9.267524E0,3.81368E0,1.8608626E0,3.8846712E0,6.0667577E0,7.69665E0,4.557873E0,5.2820253E0,2.9864085E0,3.459463E-1,5.11008E0,1.220408E0,5.00015E0,5.765457E0,3.8170042E0,5.343153E0,7.4395533E0,1.8576205E0,5.0755086E0,6.270168E0,3.713269E0,5.405877E0,6.948161E0],"categories":[],"categories_nodes":[],"categories_segments":[],"categories_sizes":[],"default_left":[1,0,0,1,1,1,0,0,0,0,1,1,0,0,0,0,0,0,1,0,0,0,0,0,0,0,1,0,0,0,0,0,0,0,0],"id":22,"left_children":[1,3,5,7,9,11,-1,-1,13,-1,15,17,-1,-1,-1,19,-1,-1,21,-1,23,-1,25,-1,-1,27,29,31,-1,-1,-1,33,-1,-1,-1],"loss_changes":[1.7224375E3,9.194072E2,2.1805176E3,5.173247E2,5.305928E2,2.1208633E3,0E0,0E0,2.0262976E2,0E0,3.943203E2,9.5570703E2,0E0,0E0,0E0,4.3107373E2,0E0,0E0,2.0635918E3,0E0,7.727208E2,0E0,6.4324414E2,0E0,0E0,3.2717188E2,6.489646E2,6.082842E2,0E0,0E0,0E0,1.1772461E2,0E0,0E0,0E0],"parents":[2147483647,0,0,1,1,2,2,3,3,4,4,5,5,8,8,10,10,11,11,15,15,18,18,20,20,22,22,25,25,26,26,27,27,31,31],"right_children":[2,4,6,8,10,12,-1,-1,14,-1,16,18,-1,-1,-1,20,-1,-1,22,-1,24,-1,26,-1,-1,28,30,32,-1,-1,-1,34,-1,-1,-1],"split_conditions":[-1.0754618E-1,-4.1311878E-1,1.0619221E0,7.293622E-2,-9.7804517E-1,2.868736E-1,9.863085E-2,3.6175918E-2,1.936775E-1,2.0600286E-1,9.0044075E-1,-1.0447778E0,9.267524E-1,3.81368E-1,1.8608627E-1,2.4085356E-1,6.066758E-1,7.69665E-1,-9.7880435E-1,5.2820253E-1,9.6340823E-1,3.4594633E-2,-6.5629765E-2,1.220408E-1,5.00015E-1,-1.262714E-1,3.3692706E-1,-4.015593E-1,7.439553E-1,1.8576205E-1,5.075509E-1,-1.0381807E0,3.713269E-1,5.405877E-1,6.948161E-1],"split_indices":[32,30,15,4,7,29,0,0,22,0,3,4,0,0,0,28,0,0,3,0,29,0,22,0,0,14,1,30,0,0,0,14,0,0,0],"split_type":[0,0,0,0,0,0,0,0,0,0,0,0,0,0,0,0,0,0,0,0,0,0,0,0,0,0,0,0,0,0,0,0,0,0,0],"sum_hessian":[2.195E3,9.46E2,1.249E3,3.55E2,5.91E2,1.125E3,1.24E2,1.36E2,2.19E2,1.22E2,4.69E2,9.98E2,1.27E2,1.09E2,1.1E2,3.55E2,1.14E2,1.11E2,8.87E2,1.37E2,2.18E2,1.03E2,7.84E2,1.17E2,1.01E2,5.18E2,2.66E2,4.17E2,1.01E2,1.05E2,1.61E2,2.64E2,1.53E2,1.2E2,1.44E2],"tree_param":{"num_deleted":"0","num_feature":"33","num_nodes":"35","size_leaf_vector":"0"}},{"base_weights":[3.7855902E0,4.452787E0,2.6990676E0,4.1102376E0,7.6324844E0,2.085173E0,4.3522468E0,4.4426E0,3.944036E-1,2.6078699E0,-5.9035933E-1,5.768257E0,2.9597514E0,4.050436E0,7.2971797E0,1.4606947E0,3.478015E0,4.470913E0,1.3875179E0,2.3461337E0,6.087508E-1,4.805568E0,2.0118287E0,2.8602831E0,4.8912997E0,3.2219024E0,5.1740594E0,6.3562765E0,4.814178E0,5.646224E0,3.9792511E0,6.093942E0,5.079641E0,3.5162358E0,4.3224916E0],"categories":[],"categories_nodes":[],"categories_segments":[],"categories_sizes":[],"default_left":[1,1,1,0,0,1,1,1,0,1,0,0,0,1,0,0,1,1,0,0,0,0,0,0,1,0,0,0,1,1,1,0,0,0,0],"id":23,"left_children":[1,3,5,7,-1,9,11,13,-1,15,-1,-1,-1,17,-1,19,21,23,-1,-1,-1,-1,-1,-1,25,-1,27,-1,29,31,33,-1,-1,-1,-1],"loss_changes":[1.5799121E3,1.4488574E3,8.4139307E2,1.5160684E3,0E0,8.588157E2,4.2855127E2,1.2331973E3,0E0,5.0700073E2,0E0,0E0,0E0,1.1067744E3,0E0,1.6679053E2,5.5674634E2,5.669512E2,0E0,0E0,0E0,0E0,0E0,0E0,3.038418E2,0E0,2.1574023E2,0E0,2.887578E2,2.5359375E1,2.0877197E1,0E0,0E0,0E0,0E0],"parents":[2147483647,0,0,1,1,2,2,3,3,5,5,6,6,7,7,9,9,13,13,15,15,16,16,17,17,24,24,26,26,28,28,29,29,30,30],"right_children":[2,4,6,8,-1,10,12,14,-1,16,-1,-1,-1,18,-1,20,22,24,-1,-1,-1,-1,-1,-1,26,-1,28,-1,30,32,34,-1,-1,-1,-1],"split_conditions":[3.2624775E-1,-1.21246345E-1,5.639175E-1,8.5890126E-1,7.6324844E-1,1.2886995E0,1.3012029E0,7.9499185E-1,3.944036E-2,-4.5022998E-2,-5.9035935E-2,5.7682574E-1,2.9597515E-1,6.3520706E-1,7.2971797E-1,-1.0088208E0,8.698478E-1,-7.0113575E-1,1.3875179E-1,2.3461337E-1,6.0875084E-2,4.8055682E-1,2.0118287E-1,2.8602833E-1,-5.967816E-1,3.2219025E-1,-5.021727E-1,6.356277E-1,2.9266596E-1,-4.4350216E-1,-4.013903E-1,6.0939425E-1,5.079641E-1,3.516236E-1,4.3224916E-1],"split_indices":[27,24,7,15,0,6,27,6,0,14,0,0,0,7,0,18,27,3,0,0,0,0,0,0,7,0,24,0,12,6,13,0,0,0,0],"split_type":[0,0,0,0,0,0,0,0,0,0,0,0,0,0,0,0,0,0,0,0,0,0,0,0,0,0,0,0,0,0,0,0,0,0,0],"sum_hessian":[2.195E3,1.358E3,8.37E2,1.228E3,1.3E2,6.12E2,2.25E2,1.127E3,1.01E2,5.12E2,1E2,1.1E2,1.15E2,9.93E2,1.34E2,2.22E2,2.9E2,8.57E2,1.36E2,1.08E2,1.14E2,1.51E2,1.39E2,1.79E2,6.78E2,1E2,5.78E2,1.31E2,4.47E2,2.21E2,2.26E2,1.18E2,1.03E2,1.01E2,1.25E2],"tree_param":{"num_deleted":"0","num_feature":"33","num_nodes":"35","size_leaf_vector":"0"}},{"base_weights":[3.4100397E0,3.097933E0,6.1852117E0,3.288018E0,-2.530667E-1,8.027427E0,4.5091476E0,1.2816464E0,3.5658324E0,2.8405447E0,-5.223363E-1,1.9730998E0,4.042216E0,2.8603437E0,-2.0283633E-1,3.6588578E0,5.6694117E0,1.4989942E0,3.876042E0,4.0818453E0,1.7905161E0,4.5824385E0,6.9454393E0,4.4331098E0,2.2755816E0,3.235083E0,4.9350576E0,4.357856E0,2.0596123E0,4.412958E0,6.618359E0,4.856528E0,3.3982036E0],"categories":[],"categories_nodes":[],"categories_segments":[],"categories_sizes":[],"default_left":[1,0,1,1,0,0,0,1,1,0,0,1,1,0,0,0,0,0,0,1,0,0,0,1,0,1,1,0,0,1,0,0,0],"id":24,"left_children":[1,3,5,7,-1,-1,-1,9,11,-1,-1,13,15,17,-1,19,21,-1,-1,23,-1,-1,-1,25,-1,27,29,-1,-1,31,-1,-1,-1],"loss_changes":[1.8829043E3,1.2594961E3,6.4617773E2,1.0377656E3,0E0,0E0,0E0,6.4548334E2,1.2378945E3,0E0,0E0,7.342029E2,7.671133E2,3.6752417E2,0E0,8.027334E2,2.9966748E2,0E0,0E0,5.197002E2,0E0,0E0,0E0,4.037744E2,0E0,2.6685986E2,4.0143164E2,0E0,0E0,1.5318945E2,0E0,0E0,0E0],"parents":[2147483647,0,0,1,1,2,2,3,3,7,7,8,8,11,11,12,12,13,13,15,15,16,16,19,19,23,23,25,25,26,26,29,29],"right_children":[2,4,6,8,-1,-1,-1,10,12,-1,-1,14,16,18,-1,20,22,-1,-1,24,-1,-1,-1,26,-1,28,30,-1,-1,32,-1,-1,-1],"split_conditions":[1.2619536E0,1.7736186E0,3.3271092E-1,-9.77219E-1,-2.530667E-2,8.0274266E-1,4.5091477E-1,-4.363674E-1,-7.573861E-1,2.840545E-1,-5.2233633E-2,-1.62258E-1,4.5217854E-1,-1.4272147E-1,-2.0283634E-2,5.3249717E-1,6.293076E-1,1.4989942E-1,3.876042E-1,7.2691107E-1,1.7905162E-1,4.5824385E-1,6.9454396E-1,-2.2632012E-1,2.2755817E-1,-3.7907508E-1,-6.4256394E-1,4.357856E-1,2.0596123E-1,3.1835675E-1,6.618359E-1,4.8565277E-1,3.3982036E-1],"split_indices":[31,30,7,7,0,0,0,31,31,0,0,6,21,29,0,15,9,0,0,12,0,0,0,9,0,6,29,0,0,12,0,0,0],"split_type":[0,0,0,0,0,0,0,0,0,0,0,0,0,0,0,0,0,0,0,0,0,0,0,0,0,0,0,0,0,0,0,0,0],"sum_hessian":[2.195E3,1.975E3,2.2E2,1.869E3,1.06E2,1.03E2,1.17E2,2.28E2,1.641E3,1.22E2,1.06E2,3.79E2,1.262E3,2.69E2,1.1E2,1.024E3,2.38E2,1.16E2,1.53E2,8.34E2,1.9E2,1.31E2,1.07E2,6.97E2,1.37E2,2.08E2,4.89E2,1.05E2,1.03E2,3.76E2,1.13E2,2.59E2,1.17E2],"tree_param":{"num_deleted":"0","num_feature":"33","num_nodes":"33","size_leaf_vector":"0"}},{"base_weights":[3.0716157E0,3.674901E0,2.2293196E0,6.975575E0,3.3704243E0,2.581987E0,4.955713E-2,2.2922027E0,4.0839405E0,1.8428947E0,3.493827E0,1.2434341E0,3.6965795E0,4.413711E0,2.202756E0,-5.927102E-1,2.7928064E0,1.726063E0,4.351779E0,2.4389234E0,-6.005254E-1,3.8792796E0,6.8860474E0,3.6542814E0,1.3359588E0,5.733342E0,3.0891848E0,4.243219E0,2.4565275E0,3.6017807E0,6.0556626E0,4.3865767E0,2.0969E0],"categories":[],"categories_nodes":[],"categories_segments":[],"categories_sizes":[],"default_left":[1,0,0,0,1,1,0,1,1,1,1,1,0,1,0,0,0,0,1,0,0,1,0,0,0,0,0,1,0,0,0,0,0],"id":25,"left_children":[1,3,5,-1,7,9,-1,11,13,15,17,19,-1,21,-1,-1,23,-1,25,-1,-1,27,-1,-1,-1,-1,-1,29,-1,31,-1,-1,-1],"loss_changes":[1.1076934E3,1.2608535E3,7.063364E2,0E0,8.92291E2,5.2664307E2,0E0,6.8617773E2,4.2701172E2,1.01732996E3,5.2786816E2,5.966617E2,0E0,7.634209E2,0E0,0E0,3.917102E2,0E0,3.9570068E2,0E0,0E0,2.453667E2,0E0,0E0,0E0,0E0,0E0,4.33917E2,0E0,3.356609E2,0E0,0E0,0E0],"parents":[2147483647,0,0,1,1,2,2,4,4,5,5,7,7,8,8,9,9,10,10,11,11,13,13,16,16,18,18,21,21,27,27,29,29],"right_children":[2,4,6,-1,8,10,-1,12,14,16,18,20,-1,22,-1,-1,24,-1,26,-1,-1,28,-1,-1,-1,-1,-1,30,-1,32,-1,-1,-1],"split_conditions":[1.4143562E-1,-1.4377608E0,1.042235E0,6.975575E-1,-3.6241966E-1,-1.5598708E-1,4.955713E-3,-5.2167475E-1,1.5964419E-1,1.5724397E-1,-1.8740723E-1,7.54365E-1,3.6965796E-1,-2.8107584E-1,2.202756E-1,-5.927102E-2,5.3199494E-1,1.726063E-1,3.266515E-1,2.4389234E-1,-6.005254E-2,-9.9404526E-1,6.886048E-1,3.6542815E-1,1.3359588E-1,5.733342E-1,3.0891848E-1,4.771437E-1,2.4565275E-1,-5.845005E-2,6.0556626E-1,4.3865767E-1,2.0969E-1],"split_indices":[2,25,15,0,10,30,0,2,28,4,21,6,0,24,0,0,28,0,4,0,0,28,0,0,0,0,0,30,0,21,0,0,0],"split_type":[0,0,0,0,0,0,0,0,0,0,0,0,0,0,0,0,0,0,0,0,0,0,0,0,0,0,0,0,0,0,0,0,0],"sum_hessian":[2.195E3,1.277E3,9.18E2,1.06E2,1.171E3,7.9E2,1.28E2,4.68E2,7.03E2,4.38E2,3.52E2,2.69E2,1.99E2,5.97E2,1.06E2,1.23E2,3.15E2,1.16E2,2.36E2,1.63E2,1.06E2,4.93E2,1.04E2,1.97E2,1.18E2,1.11E2,1.25E2,3.91E2,1.02E2,2.91E2,1E2,1.9E2,1.01E2],"tree_param":{"num_deleted":"0","num_feature":"33","num_nodes":"33","size_leaf_vector":"0"}},{"base_weights":[2.7668035E0,2.5205622E0,4.891599E0,2.7033746E0,3.5403475E-2,7.6300993E0,2.2517266E0,1.8419782E0,3.2772696E0,-9.284992E-1,2.304464E0,2.9338014E0,4.993588E0,4.08544E0,1.7405725E0,1.9866884E0,3.4736922E0,1.3022755E0,3.2603927E0,3.1665044E0,9.7098416E-1,4.50297E0,3.0880136E0,1.970648E0,-1.5212817E-1,2.4922044E0,4.5286083E0,2.9703054E0,5.1858604E-1,1.6692731E0,3.2472782E0],"categories":[],"categories_nodes":[],"categories_segments":[],"categories_sizes":[],"default_left":[1,1,0,1,0,0,0,0,1,0,0,0,0,0,1,1,0,1,0,0,0,0,1,0,0,0,0,0,0,0,0],"id":26,"left_children":[1,3,5,7,-1,-1,-1,9,11,-1,13,15,-1,-1,17,19,21,23,-1,-1,-1,-1,25,27,-1,29,-1,-1,-1,-1,-1],"loss_changes":[1.1366445E3,8.949121E2,1.6238677E3,9.0109766E2,0E0,0E0,0E0,9.4518164E2,6.337998E2,0E0,6.265884E2,4.6301807E2,0E0,0E0,3.1616382E2,3.9956885E2,2.1792578E2,3.6483118E2,0E0,0E0,0E0,0E0,3.560747E2,3.7151166E2,0E0,1.8409814E2,0E0,0E0,0E0,0E0,0E0],"parents":[2147483647,0,0,1,1,2,2,3,3,7,7,8,8,10,10,11,11,14,14,15,15,16,16,17,17,22,22,23,23,25,25],"right_children":[2,4,6,8,-1,-1,-1,10,12,-1,14,16,-1,-1,18,20,22,24,-1,-1,-1,-1,26,28,-1,30,-1,-1,-1,-1,-1],"split_conditions":[1.1836392E0,1.0273077E0,1.033915E0,-4.421053E-1,3.5403476E-3,7.6300997E-1,2.2517267E-1,-6.115087E-1,5.426271E-1,-9.2849925E-2,2.555229E-1,1.6938254E-1,4.993588E-1,4.0854403E-1,1.0938126E0,3.716162E-1,-8.529388E-1,5.224857E-2,3.2603928E-1,3.1665045E-1,9.709842E-2,4.5029703E-1,6.282162E-1,-6.4935505E-1,-1.5212818E-2,6.5273225E-1,4.5286083E-1,2.9703054E-1,5.1858604E-2,1.6692732E-1,3.2472783E-1],"split_indices":[11,30,15,10,0,0,0,24,11,0,26,19,0,0,21,2,21,15,0,0,0,0,1,16,0,10,0,0,0,0,0],"split_type":[0,0,0,0,0,0,0,0,0,0,0,0,0,0,0,0,0,0,0,0,0,0,0,0,0,0,0,0,0,0,0],"sum_hessian":[2.195E3,1.969E3,2.26E2,1.834E3,1.35E2,1.1E2,1.16E2,7.35E2,1.099E3,1.05E2,6.3E2,9.18E2,1.81E2,1.5E2,4.8E2,3.35E2,5.83E2,3.74E2,1.06E2,1.54E2,1.81E2,1.56E2,4.27E2,2.56E2,1.18E2,3.04E2,1.23E2,1.51E2,1.05E2,1.47E2,1.57E2],"tree_param":{"num_deleted":"0","num_feature":"33","num_nodes":"31","size_leaf_vector":"0"}},{"base_weights":[2.4920697E0,2.2944648E0,5.4223347E0,2.9735365E0,1.5215343E0,1.0684613E0,3.3471377E0,1.9098195E0,-1.6430577E0,3.7443612E0,9.4127846E-1,2.40127E0,5.451627E-1,3.150761E0,7.436182E0,1.2515098E0,3.3976543E0,-7.632051E-1,2.1816912E0,3.4771373E0,1.6196128E0,3.1924603E0,2.3977901E-1,1.6126947E0,4.1515284E0,3.0506778E0,5.3537545E0,5.281733E0,2.7986405E0,3.429955E0,2.5188224E0,3.031135E0,4.023925E0],"categories":[],"categories_nodes":[],"categories_segments":[],"categories_sizes":[],"default_left":[1,1,0,0,1,0,0,1,0,1,0,0,1,1,0,1,1,0,0,1,0,0,0,0,1,0,0,0,0,0,0,0,0],"id":27,"left_children":[1,3,-1,5,7,-1,9,11,-1,13,-1,15,17,19,-1,21,23,-1,-1,25,-1,-1,-1,-1,27,29,-1,-1,-1,31,-1,-1,-1],"loss_changes":[1.2591191E3,1.0761934E3,0E0,7.7577637E2,1.1888953E3,0E0,8.709092E2,5.754597E2,0E0,1.6968701E3,0E0,7.1976855E2,4.919956E2,3.3318555E2,0E0,5.7853174E2,4.481294E2,0E0,0E0,4.3023633E2,0E0,0E0,0E0,0E0,3.476006E2,8.3546875E1,0E0,0E0,0E0,5.0341064E1,0E0,0E0,0E0],"parents":[2147483647,0,0,1,1,3,3,4,4,6,6,7,7,9,9,11,11,12,12,13,13,15,15,16,16,19,19,24,24,25,25,29,29],"right_children":[2,4,-1,6,8,-1,10,12,-1,14,-1,16,18,20,-1,22,24,-1,-1,26,-1,-1,-1,-1,28,30,-1,-1,-1,32,-1,-1,-1],"split_conditions":[1.2316506E0,3.263423E-2,5.4223347E-1,-3.0607912E-1,5.95238E-1,1.0684613E-1,1.1420228E0,1.2450476E0,-1.6430578E-1,7.9912317E-1,9.412785E-2,-1.9586483E-1,1.2273059E0,7.229161E-1,7.436182E-1,-1.4467466E0,-7.011985E-1,-7.6320514E-2,2.1816912E-1,-1.105819E0,1.6196129E-1,3.1924602E-1,2.3977902E-2,1.6126947E-1,5.558921E-2,-3.4462267E-1,5.353755E-1,5.281733E-1,2.7986404E-1,-9.001807E-1,2.5188226E-1,3.0311352E-1,4.0239248E-1],"split_indices":[29,27,0,16,12,0,16,27,0,6,0,20,23,12,0,30,12,0,0,24,0,0,0,0,6,20,0,0,0,23,0,0,0],"split_type":[0,0,0,0,0,0,0,0,0,0,0,0,0,0,0,0,0,0,0,0,0,0,0,0,0,0,0,0,0,0,0,0,0],"sum_hessian":[2.195E3,2.058E3,1.37E2,1.094E3,9.64E2,1.8E2,9.14E2,8.59E2,1.05E2,7.84E2,1.3E2,6.31E2,2.28E2,6.77E2,1.07E2,2.94E2,3.37E2,1.27E2,1.01E2,5.57E2,1.2E2,1E2,1.94E2,1.01E2,2.36E2,4.56E2,1.01E2,1.27E2,1.09E2,2.63E2,1.93E2,1.61E2,1.02E2],"tree_param":{"num_deleted":"0","num_feature":"33","num_nodes":"33","size_leaf_vector":"0"}},{"base_weights":[2.2448814E0,2.0002084E0,4.317531E0,2.1807485E0,-3.7012514E-1,2.6756563E0,6.008377E0,1.5463132E0,2.9842844E0,5.528509E-1,2.0849159E0,1.6678329E0,3.2807531E0,-6.6607785E-1,2.3943343E0,1.2087791E0,4.050298E0,2.8550506E0,5.5917416E0,1.5101647E0,-2.7775025E0,1.9225378E0,1.843716E-1,5.618142E0,2.3957832E0,3.1792774E0,1.9562814E0,7.5103015E-1,2.8211448E0,3.8738315E0,2.7183583E0,2.0813084E0,3.5521295E0],"categories":[],"categories_nodes":[],"categories_segments":[],"categories_sizes":[],"default_left":[1,1,1,0,0,0,0,1,1,0,1,0,1,1,0,1,1,1,0,0,0,1,0,0,0,1,0,0,0,0,0,0,0],"id":28,"left_children":[1,3,5,7,-1,-1,-1,9,11,13,15,-1,17,19,-1,21,23,25,-1,-1,-1,27,-1,-1,-1,29,-1,-1,-1,-1,31,-1,-1],"loss_changes":[1.105002E3,8.421362E2,6.252163E2,9.267754E2,0E0,0E0,0E0,5.462361E2,3.0870898E2,8.119089E2,1.1367529E3,0E0,6.294038E2,1.0058984E3,0E0,3.3598834E2,5.157207E2,1.5580176E2,0E0,0E0,0E0,2.8316962E2,0E0,0E0,0E0,1.1976367E2,0E0,0E0,0E0,0E0,1.2433313E2,0E0,0E0],"parents":[2147483647,0,0,1,1,2,2,3,3,7,7,8,8,9,9,10,10,12,12,13,13,15,15,16,16,17,17,21,21,25,25,30,30],"right_children":[2,4,6,8,-1,-1,-1,10,12,14,16,-1,18,20,-1,22,24,26,-1,-1,-1,28,-1,-1,-1,30,-1,-1,-1,-1,32,-1,-1],"split_conditions":[1.251115E0,1.1836298E0,9.821409E-1,5.704336E-1,-3.7012514E-2,2.6756564E-1,6.008377E-1,-3.9260513E-1,-7.416774E-1,-1.230388E-1,-1.042732E-1,1.6678329E-1,5.816533E-1,-7.3094153E-1,2.3943344E-1,-1.8101925E-1,4.572838E-1,2.2974522E-1,5.591742E-1,1.5101647E-1,-2.7775025E-1,-1.1891649E0,1.843716E-2,5.6181425E-1,2.3957832E-1,-3.7936276E-1,1.9562815E-1,7.5103015E-2,2.8211448E-1,3.8738316E-1,8.49033E-3,2.0813084E-1,3.5521296E-1],"split_indices":[31,17,11,19,0,0,0,1,32,25,32,0,1,13,0,17,2,2,0,0,0,32,0,0,0,6,0,0,0,0,20,0,0],"split_type":[0,0,0,0,0,0,0,0,0,0,0,0,0,0,0,0,0,0,0,0,0,0,0,0,0,0,0,0,0,0,0,0,0],"sum_hessian":[2.195E3,1.965E3,2.3E2,1.826E3,1.39E2,1.18E2,1.12E2,1.022E3,8.04E2,3.6E2,6.62E2,1.49E2,6.55E2,2.17E2,1.43E2,4.59E2,2.03E2,5.55E2,1E2,1.07E2,1.1E2,2.7E2,1.89E2,1.03E2,1E2,4.06E2,1.49E2,1.18E2,1.52E2,1.59E2,2.47E2,1.42E2,1.05E2],"tree_param":{"num_deleted":"0","num_feature":"33","num_nodes":"33","size_leaf_vector":"0"}},{"base_weights":[2.022212E0,1.8205013E0,4.3127966E0,2.1534326E0,-1.3242717E0,1.9115428E0,4.455018E0,-3.321135E-1,2.08244E0,9.3406177E-1,2.5243964E0,1.5192877E0,-9.329573E-1,-1.0712843E-2,2.7837083E0,9.707453E-1,2.669818E0,2.4218311E0,4.5387235E0,2.3015726E0,-2.9908875E-1,2.8393767E0,1.702844E0,1.8136737E0,3.4248903E0,3.553169E-1,2.767907E0,2.728473E0,4.9455047E0],"categories":[],"categories_nodes":[],"categories_segments":[],"categories_sizes":[],"default_left":[1,0,0,1,0,1,0,0,1,1,1,0,0,0,1,1,0,0,0,0,0,1,1,0,0,0,0,0,0],"id":29,"left_children":[1,3,-1,5,-1,7,-1,-1,9,11,13,15,-1,-1,17,19,-1,21,-1,-1,-1,23,25,-1,27,-1,-1,-1,-1],"loss_changes":[1.0067783E3,2.1177783E3,0E0,1.0086289E3,0E0,6.3527637E2,0E0,0E0,7.7822754E2,4.701549E2,7.297256E2,2.0378278E2,0E0,0E0,6.285542E2,3.7754272E2,0E0,2.4644043E2,0E0,0E0,0E0,3.1088525E2,4.4392877E2,0E0,3.4126538E2,0E0,0E0,0E0,0E0],"parents":[2147483647,0,0,1,1,3,3,5,5,8,8,9,9,10,10,11,11,14,14,15,15,17,17,21,21,22,22,24,24],"right_children":[2,4,-1,6,-1,8,-1,-1,10,12,14,16,-1,-1,18,20,-1,22,-1,-1,-1,24,26,-1,28,-1,-1,-1,-1],"split_conditions":[1.4353799E0,1.1088209E0,4.3127966E-1,1.2205896E0,-1.3242717E-1,-1.5077623E0,4.455018E-1,-3.321135E-2,-7.573861E-1,-1.62258E-1,-9.77219E-1,-4.79886E-1,-9.329573E-2,-1.0712844E-3,2.8953722E-1,-9.470744E-1,2.669818E-1,-1.701332E-1,4.5387235E-1,2.3015726E-1,-2.9908875E-2,-5.509591E-1,1.9936693E-1,1.8136738E-1,-4.007117E-1,3.5531692E-2,2.767907E-1,2.728473E-1,4.9455047E-1],"split_indices":[1,15,0,31,0,1,0,0,31,6,7,30,0,0,21,20,0,22,0,0,0,3,1,0,25,0,0,0,0],"split_type":[0,0,0,0,0,0,0,0,0,0,0,0,0,0,0,0,0,0,0,0,0,0,0,0,0,0,0,0,0],"sum_hessian":[2.195E3,2.019E3,1.76E2,1.826E3,1.93E2,1.654E3,1.72E2,1.17E2,1.537E3,4.28E2,1.109E3,3.26E2,1.02E2,1.03E2,1.006E3,2.22E2,1.04E2,8.36E2,1.7E2,1.08E2,1.14E2,5.27E2,3.09E2,1.93E2,3.34E2,1.37E2,1.72E2,2.31E2,1.03E2],"tree_param":{"num_deleted":"0","num_feature":"33","num_nodes":"29","size_leaf_vector":"0"}},{"base_weights":[1.8212657E0,1.6396235E0,3.8839548E0,1.88293E0,-1.8265588E0,7.4394345E-1,2.2092896E0,-8.501537E-1,1.8227001E0,2.4026968E-1,2.397336E0,2.8447723E0,3.4085912E-1,2.596834E0,4.7301793E-1,2.4103856E0,4.6257486E0,3.0356934E0,1.6460247E0,2.527095E0,5.5788417E0,1.0657237E0,3.5096374E0,3.9069948E0,2.129963E0,-1.412523E0,1.9759078E0,1.2649237E0,2.4385953E0,4.613638E-1,2.8055398E0],"categories":[],"categories_nodes":[],"categories_segments":[],"categories_sizes":[],"default_left":[1,1,0,1,0,1,1,0,1,0,1,0,0,1,0,1,0,1,1,1,0,0,0,0,1,0,0,0,0,0,0],"id":30,"left_children":[1,3,-1,5,-1,7,9,-1,11,-1,13,-1,-1,15,-1,17,-1,19,21,23,-1,25,-1,-1,27,-1,29,-1,-1,-1,-1],"loss_changes":[8.1640967E2,1.7069951E3,0E0,7.001621E2,0E0,7.2723883E2,5.4260645E2,0E0,3.8069653E2,0E0,5.1281006E2,0E0,0E0,4.4771436E2,0E0,5.2697314E2,0E0,7.7619434E2,5.402323E2,2.7170776E2,0E0,8.7122046E2,0E0,0E0,1.0343982E2,0E0,3.530426E2,0E0,0E0,0E0,0E0],"parents":[2147483647,0,0,1,1,3,3,5,5,6,6,8,8,10,10,13,13,15,15,17,17,18,18,19,19,21,21,24,24,26,26],"right_children":[2,4,-1,6,-1,8,10,-1,12,-1,14,-1,-1,16,-1,18,-1,20,22,24,-1,26,-1,-1,28,-1,30,-1,-1,-1,-1],"split_conditions":[1.4353799E0,1.4422607E0,3.883955E-1,-5.819869E-1,-1.8265589E-1,-9.7666055E-2,-1.5100914E0,-8.501537E-2,6.5459573E-1,2.4026968E-2,1.2508049E0,2.8447723E-1,3.408591E-2,4.6290797E-1,4.7301795E-2,-1.541918E-2,4.6257487E-1,-4.2883718E-1,5.816533E-1,-3.6326778E-1,5.5788416E-1,5.7928994E-2,3.5096374E-1,3.9069948E-1,-1.2290065E0,-1.4125231E-1,-2.4841064E-1,1.2649237E-1,2.4385953E-1,4.613638E-2,2.80554E-1],"split_indices":[1,8,0,7,0,1,1,0,27,0,27,0,0,24,0,14,0,19,1,31,0,30,0,0,27,0,10,0,0,0,0],"split_type":[0,0,0,0,0,0,0,0,0,0,0,0,0,0,0,0,0,0,0,0,0,0,0,0,0,0,0,0,0,0,0],"sum_hessian":[2.195E3,2.019E3,1.76E2,1.887E3,1.32E2,4.21E2,1.466E3,1.7E2,2.51E2,1.28E2,1.338E3,1.48E2,1.03E2,1.212E3,1.26E2,1.112E3,1E2,6.1E2,5.02E2,5.1E2,1E2,3.84E2,1.18E2,1.12E2,3.98E2,1.03E2,2.81E2,1.06E2,2.92E2,1E2,1.81E2],"tree_param":{"num_deleted":"0","num_feature":"33","num_nodes":"31","size_leaf_vector":"0"}},{"base_weights":[1.640427E0,1.4630382E0,4.2752323E0,1.6179409E0,-1.435036E0,3.1390553E0,1.4123049E0,3.688076E-1,6.371879E0,-9.23801E-1,1.6306506E0,1.9943181E0,5.336638E-1,2.3534274E0,4.6166193E-1,-8.855842E-1,1.1075449E0,2.0472097E0,4.239808E0,1.8880134E0,-1.0596542E0,2.063645E0,-1.0217712E-1,3.327915E0,1.7515484E0,3.327348E-1,2.0039718E0,3.166803E0,1.6233706E0],"categories":[],"categories_nodes":[],"categories_segments":[],"categories_sizes":[],"default_left":[1,0,0,0,0,1,0,0,0,0,1,1,0,0,1,0,0,0,0,0,0,0,0,0,0,0,0,0,0],"id":31,"left_children":[1,3,-1,5,-1,7,9,-1,-1,-1,11,13,15,17,19,-1,21,23,-1,-1,-1,-1,-1,-1,25,-1,27,-1,-1],"loss_changes":[1.02012256E3,9.2664746E2,0E0,6.070825E2,0E0,2.0753772E3,8.8088257E2,0E0,0E0,0E0,6.280615E2,6.5057666E2,3.218858E2,5.452798E2,4.924051E2,0E0,3.252197E2,3.073186E2,0E0,0E0,0E0,0E0,0E0,0E0,2.4072095E2,0E0,2.4801196E2,0E0,0E0],"parents":[2147483647,0,0,1,1,3,3,5,5,6,6,10,10,11,11,12,12,13,13,14,14,16,16,17,17,24,24,26,26],"right_children":[2,4,-1,6,-1,8,10,-1,-1,-1,12,14,16,18,20,-1,22,24,-1,-1,-1,-1,-1,-1,26,-1,28,-1,-1],"split_conditions":[1.2316506E0,1.3891664E0,4.2752323E-1,-9.125816E-1,-1.4350359E-1,2.8117532E-1,-6.0990006E-1,3.688076E-2,6.371879E-1,-9.23801E-2,8.698478E-1,6.5898895E-1,-6.8278074E-2,3.4474295E-1,3.657111E-1,-8.855842E-2,5.827929E-1,-9.652927E-1,4.239808E-1,1.8880133E-1,-1.0596543E-1,2.063645E-1,-1.0217712E-2,3.327915E-1,-4.5543912E-1,3.327348E-2,2.1355177E-1,3.1668028E-1,1.6233706E-1],"split_indices":[29,20,0,28,0,6,24,0,0,0,27,12,14,20,2,0,14,30,0,0,0,0,0,0,29,0,29,0,0],"split_type":[0,0,0,0,0,0,0,0,0,0,0,0,0,0,0,0,0,0,0,0,0,0,0,0,0,0,0,0,0],"sum_hessian":[2.195E3,2.058E3,1.37E2,1.954E3,1.04E2,2.31E2,1.723E3,1.25E2,1.06E2,1.47E2,1.576E3,1.183E3,3.93E2,9.58E2,2.25E2,1.13E2,2.8E2,8.26E2,1.32E2,1.16E2,1.09E2,1.56E2,1.24E2,1.53E2,6.73E2,1.02E2,5.71E2,1.39E2,4.32E2],"tree_param":{"num_deleted":"0","num_feature":"33","num_nodes":"29","size_leaf_vector":"0"}},{"base_weights":[1.4774431E0,1.317656E0,3.850806E0,1.634919E0,-1.7937691E0,1.1548561E0,2.3432949E0,1.4173738E0,-1.3863124E0,4.6820364E0,1.9322802E0,-2.03181E-1,1.6821116E0,2.279797E0,1.0928587E-1,-8.1340864E-2,1.9268856E0,1.7182171E0,3.441274E0,2.371588E0,5.614071E-1,9.6139085E-1,2.6866224E0,2.0866442E0,3.69101E0,1.5764908E0,3.250134E-1,9.7773993E-1,2.4133277E0,3.0286903E0,1.6499747E0],"categories":[],"categories_nodes":[],"categories_segments":[],"categories_sizes":[],"default_left":[1,0,0,1,0,1,0,1,0,0,1,0,0,1,0,0,0,1,0,1,0,0,0,0,0,0,0,0,0,0,0],"id":32,"left_children":[1,3,-1,5,-1,7,9,11,-1,-1,13,-1,15,17,-1,-1,19,21,-1,23,-1,25,-1,27,-1,-1,-1,-1,29,-1,-1],"loss_changes":[8.277212E2,2.0354536E3,0E0,6.328755E2,0E0,7.464501E2,7.157407E2,4.345122E2,0E0,0E0,4.0710498E2,0E0,3.7568994E2,3.463086E2,0E0,0E0,4.6259326E2,2.6566382E2,0E0,2.088518E2,0E0,8.051482E1,0E0,1.7007642E2,0E0,0E0,0E0,0E0,1.6739697E2,0E0,0E0],"parents":[2147483647,0,0,1,1,3,3,5,5,6,6,7,7,10,10,12,12,13,13,16,16,17,17,19,19,21,21,23,23,28,28],"right_children":[2,4,-1,6,-1,8,10,12,-1,-1,14,-1,16,18,-1,-1,20,22,-1,24,-1,26,-1,28,-1,-1,-1,-1,30,-1,-1],"split_conditions":[1.2316506E0,1.1088209E0,3.850806E-1,6.9851354E-2,-1.7937692E-1,2.0942059E-1,-9.125816E-1,-1.5079169E0,-1.3863124E-1,4.6820363E-1,1.2791593E0,-2.03181E-2,-1.1433284E0,6.603935E-1,1.0928587E-2,-8.134087E-3,-1.4984049E-1,6.1635554E-2,3.441274E-1,-2.7955252E-1,5.614071E-2,1.8470703E-1,2.6866224E-1,-7.890634E-1,3.6910102E-1,1.5764908E-1,3.250134E-2,9.777399E-2,-1.1341648E0,3.0286905E-1,1.6499747E-1],"split_indices":[29,15,0,20,0,17,28,10,0,0,8,0,16,1,0,0,22,25,0,20,0,15,0,28,0,0,0,0,20,0,0],"split_type":[0,0,0,0,0,0,0,0,0,0,0,0,0,0,0,0,0,0,0,0,0,0,0,0,0,0,0,0,0,0,0],"sum_hessian":[2.195E3,2.058E3,1.37E2,1.868E3,1.9E2,1.115E3,7.53E2,1.011E3,1.04E2,1.11E2,6.42E2,1.42E2,8.69E2,5.39E2,1.03E2,1.06E2,7.63E2,3.65E2,1.74E2,5.75E2,1.88E2,2.06E2,1.59E2,4.75E2,1E2,1.04E2,1.02E2,1.09E2,3.66E2,2.01E2,1.65E2],"tree_param":{"num_deleted":"0","num_feature":"33","num_nodes":"31","size_leaf_vector":"0"}},{"base_weights":[1.3307513E0,3.6377566E0,1.1885675E0,1.0509577E0,3.5187974E0,1.2467718E0,-2.3783164E0,-7.611598E-1,1.3728486E0,1.0832382E0,2.4700646E0,1.7386439E0,6.649492E-1,3.2508917E0,7.138018E-1,1.3339309E0,3.4309886E0,1.2421552E0,-6.806952E-1,5.182342E0,1.8263395E0,2.2130005E-1,1.7619787E0,1.6145228E0,-2.6415342E-1,7.473186E-1,-2.8513234E0,2.2300262E0,1.3312494E0,2.0121253E0,1.2622683E-1,1.2109928E0,2.757172E0],"categories":[],"categories_nodes":[],"categories_segments":[],"categories_sizes":[],"default_left":[1,0,1,1,0,0,0,0,1,1,1,1,1,1,0,1,0,1,1,0,0,0,1,1,0,0,0,0,0,1,0,0,0],"id":33,"left_children":[1,-1,3,5,-1,7,-1,-1,9,11,13,15,17,19,-1,21,-1,23,25,-1,-1,-1,27,29,-1,-1,-1,-1,-1,31,-1,-1,-1],"loss_changes":[7.160056E2,0E0,6.600735E2,1.3164204E3,0E0,4.6963184E2,0E0,0E0,5.508716E2,3.7716943E2,4.9547485E2,3.6322192E2,6.563921E2,6.811499E2,0E0,2.0678284E2,0E0,3.3191864E2,7.8945135E2,0E0,0E0,0E0,6.033435E1,2.802356E2,0E0,0E0,0E0,0E0,0E0,2.1989478E2,0E0,0E0,0E0],"parents":[2147483647,0,0,2,2,3,3,5,5,8,8,9,9,10,10,11,11,12,12,13,13,15,15,17,17,18,18,22,22,23,23,29,29],"right_children":[2,-1,4,6,-1,8,-1,-1,10,12,14,16,18,20,-1,22,-1,24,26,-1,-1,-1,28,30,-1,-1,-1,-1,-1,32,-1,-1,-1],"split_conditions":[-1.6193874E0,3.6377567E-1,1.300745E0,1.3737707E0,3.5187975E-1,-1.4954989E0,-2.3783164E-1,-7.611598E-2,4.2654324E-1,-5.383036E-1,1.162851E0,-5.697253E-1,1.2413007E-1,7.16236E-1,7.138018E-2,-6.7899513E-1,3.4309885E-1,1.5157543E0,-7.406099E-2,5.182342E-1,1.8263395E-1,2.2130005E-2,-8.3328265E-1,7.3080695E-1,-2.6415342E-2,7.4731864E-2,-2.8513235E-1,2.2300263E-1,1.3312493E-1,3.7160447E-1,1.2622683E-2,1.21099286E-1,2.7571723E-1],"split_indices":[4,0,24,6,0,10,0,0,21,27,17,19,6,27,0,3,0,4,4,0,0,0,8,27,0,0,0,0,0,2,0,0,0],"split_type":[0,0,0,0,0,0,0,0,0,0,0,0,0,0,0,0,0,0,0,0,0,0,0,0,0,0,0,0,0,0,0,0,0],"sum_hessian":[2.195E3,1.26E2,2.069E3,1.955E3,1.14E2,1.85E3,1.05E2,1.09E2,1.741E3,1.379E3,3.62E2,5.36E2,8.43E2,2.5E2,1.12E2,4.34E2,1.02E2,5.9E2,2.53E2,1.05E2,1.45E2,1.21E2,3.13E2,4.73E2,1.17E2,1.53E2,1E2,1.48E2,1.65E2,3.73E2,1E2,1.81E2,1.92E2],"tree_param":{"num_deleted":"0","num_feature":"33","num_nodes":"33","size_leaf_vector":"0"}},{"base_weights":[1.1986178E0,1.0440639E0,3.0823545E0,1.4614908E0,2.5344595E-1,1.1752008E0,3.5311277E0,-1.959581E0,6.54039E-1,-5.933014E-1,1.3430023E0,-2.4838033E-1,1.7445468E0,2.0801475E0,8.3902925E-1,-9.074507E-1,1.0780855E0,2.9834E0,8.474899E-1,1.327233E0,2.823476E0,-4.8394215E-1,1.0867552E0,8.361091E-1,-2.5806382E0,8.532705E-1,1.7976832E0,2.1012542E0,3.632154E0,3.0139732E-1,1.8709884E0,1.4809763E0,-5.6253475E-1,2.7720995E0,1.2062669E0],"categories":[],"categories_nodes":[],"categories_segments":[],"categories_sizes":[],"default_left":[1,1,0,1,0,1,0,0,1,0,1,1,1,1,0,1,0,0,0,1,1,0,1,0,0,0,0,0,0,1,1,0,0,0,0],"id":34,"left_children":[1,3,-1,5,7,9,-1,-1,11,-1,13,15,17,19,21,23,-1,-1,-1,25,27,-1,29,-1,-1,-1,-1,-1,-1,31,33,-1,-1,-1,-1],"loss_changes":[6.361228E2,6.6991064E2,0E0,7.8330444E2,6.245075E2,3.4770618E2,0E0,0E0,5.8695404E2,0E0,3.9501807E2,2.868529E2,2.9752863E2,2.3858679E2,2.0896494E2,6.41047E2,0E0,0E0,0E0,4.6851807E1,1.1910547E2,0E0,3.2956042E2,0E0,0E0,0E0,0E0,0E0,0E0,2.7496457E2,1.5718488E2,0E0,0E0,0E0,0E0],"parents":[2147483647,0,0,1,1,3,3,4,4,5,5,8,8,10,10,11,11,12,12,13,13,14,14,15,15,19,19,20,20,22,22,29,29,30,30],"right_children":[2,4,-1,6,8,10,-1,-1,12,-1,14,16,18,20,22,24,-1,-1,-1,26,28,-1,30,-1,-1,-1,-1,-1,-1,32,34,-1,-1,-1,-1],"split_conditions":[1.3342378E0,2.625036E-1,3.0823547E-1,5.426271E-1,-1.0248226E0,-9.399812E-1,3.531128E-1,-1.9595811E-1,4.958407E-2,-5.9330143E-2,-5.9232867E-1,8.719397E-2,6.881161E-1,5.369531E-2,-1.2580391E0,-3.840273E-2,1.0780855E-1,2.9834002E-1,8.474899E-2,7.690054E-1,-2.5965708E-1,-4.8394214E-2,-4.5347232E-2,8.3610915E-2,-2.5806382E-1,8.532705E-2,1.7976832E-1,2.1012543E-1,3.6321542E-1,-2.3600993E-1,-4.9883914E-1,1.4809763E-1,-5.6253474E-2,2.7720997E-1,1.2062669E-1],"split_indices":[11,15,0,11,9,3,0,0,23,0,23,21,8,3,15,32,0,0,0,32,8,0,21,0,0,0,0,0,0,13,15,0,0,0,0],"split_type":[0,0,0,0,0,0,0,0,0,0,0,0,0,0,0,0,0,0,0,0,0,0,0,0,0,0,0,0,0,0,0,0,0,0,0],"sum_hessian":[2.195E3,2.03E3,1.65E2,1.328E3,7.02E2,1.168E3,1.6E2,1.07E2,5.95E2,1.01E2,1.067E3,3.26E2,2.69E2,4.32E2,6.35E2,2.18E2,1.08E2,1.12E2,1.57E2,2.16E2,2.16E2,1E2,5.35E2,1.07E2,1.11E2,1.09E2,1.07E2,1.16E2,1E2,2.68E2,2.67E2,1.13E2,1.55E2,1.12E2,1.55E2],"tree_param":{"num_deleted":"0","num_feature":"33","num_nodes":"35","size_leaf_vector":"0"}},{"base_weights":[1.079668E0,2.9101355E0,9.5740896E-1,8.478683E-1,3.0736687E0,1.0359051E0,-2.5875072E0,-9.8613507E-1,1.1710416E0,1.3199829E0,-4.9199387E-1,8.491381E-1,2.3246331E0,1.3125305E0,-3.7143505E-1,1.4656937E0,3.8384838E0,3.5040358E-1,1.6485127E0,-1.9938294E0,4.8260757E-1,4.842474E-1,2.6942387E0,1.2032545E0,-4.97616E-1,1.9148866E0,3.808097E-1,1.4540108E0,2.7276304E0],"categories":[],"categories_nodes":[],"categories_segments":[],"categories_sizes":[],"default_left":[0,0,1,1,0,0,0,0,1,1,0,1,1,1,1,0,0,0,0,0,0,0,0,0,0,0,0,0,0],"id":35,"left_children":[1,-1,3,5,-1,7,-1,-1,9,11,-1,13,15,17,19,21,-1,23,25,-1,-1,-1,-1,-1,-1,27,-1,-1,-1],"loss_changes":[4.8865967E2,0E0,4.7493567E2,1.2687954E3,0E0,5.091289E2,0E0,0E0,4.3238135E2,7.5488086E2,0E0,6.1756195E2,6.5753E2,2.5511914E2,4.18026E2,3.9297595E2,0E0,1.49585E2,1.9715295E2,0E0,0E0,0E0,0E0,0E0,0E0,1.7732764E2,0E0,0E0,0E0],"parents":[2147483647,0,0,2,2,3,3,5,5,8,8,9,9,11,11,12,12,13,13,14,14,15,15,17,17,18,18,25,25],"right_children":[2,-1,4,6,-1,8,-1,-1,10,12,-1,14,16,18,20,22,-1,24,26,-1,-1,-1,-1,-1,-1,28,-1,-1,-1],"split_conditions":[-1.5321217E0,2.9101357E-1,1.5843961E0,1.4768739E0,3.0736688E-1,-1.5079169E0,-2.5875074E-1,-9.861351E-2,1.2898992E0,9.009413E-2,-4.9199387E-2,1.3713108E-1,7.776914E-3,-4.334233E-1,-5.049225E-1,6.95802E-1,3.838484E-1,-8.651186E-1,-1.939935E-2,-1.9938295E-1,4.826076E-2,4.842474E-2,2.6942387E-1,1.20325446E-1,-4.97616E-2,9.987724E-1,3.808097E-2,1.4540109E-1,2.7276304E-1],"split_indices":[25,0,22,17,0,10,0,0,27,21,0,6,0,32,21,22,0,19,21,0,0,0,0,0,0,9,0,0,0],"split_type":[0,0,0,0,0,0,0,0,0,0,0,0,0,0,0,0,0,0,0,0,0,0,0,0,0,0,0,0,0],"sum_hessian":[2.195E3,1.36E2,2.059E3,1.959E3,1E2,1.858E3,1.01E2,1.16E2,1.742E3,1.599E3,1.43E2,1.09E3,5.09E2,7.9E2,3E2,3.26E2,1.83E2,2.05E2,5.85E2,1.03E2,1.97E2,1.82E2,1.44E2,1.02E2,1.03E2,4.83E2,1.02E2,3.1E2,1.73E2],"tree_param":{"num_deleted":"0","num_feature":"33","num_nodes":"29","size_leaf_vector":"0"}},{"base_weights":[9.722793E-1,8.05194E-1,2.3901033E0,9.4890845E-1,-1.776971E0,3.6295762E0,1.0636663E0,-3.9169452E-1,1.0881249E0,1.6605314E0,5.4545903E-1,1.3160441E0,3.0754693E0,9.901003E-1,-7.7674323E-1,1.582892E0,2.1184455E-1,5.5421287E-1,2.179343E0,8.899607E-1,-2.732793E0,2.7697098E0,1.2887223E0,1.2203387E0,-1.1423454E0,1.775642E0,6.4303875E-1,1.2808338E-1,2.8224394E0,1.3426207E0,2.2266426E0,1.288216E0,-1.0332928E0],"categories":[],"categories_nodes":[],"categories_segments":[],"categories_sizes":[],"default_left":[1,0,0,1,0,0,0,0,1,1,1,0,0,1,1,0,0,0,0,0,0,0,0,0,0,1,0,1,0,0,0,0,0],"id":36,"left_children":[1,3,5,7,-1,-1,-1,-1,9,11,13,15,-1,17,19,21,-1,23,-1,-1,-1,-1,25,27,-1,29,-1,31,-1,-1,-1,-1,-1],"loss_changes":[5.183025E2,7.312577E2,3.7592224E2,3.48125E2,0E0,0E0,0E0,0E0,5.2343005E2,3.961311E2,5.1107126E2,1.947251E2,0E0,3.357365E2,7.1640625E2,1.8251465E2,0E0,5.404619E2,0E0,0E0,0E0,0E0,1.3373407E2,5.998551E2,0E0,4.4661865E1,0E0,2.775379E2,0E0,0E0,0E0,0E0,0E0],"parents":[2147483647,0,0,1,1,2,2,3,3,8,8,9,9,10,10,11,11,13,13,14,14,15,15,17,17,22,22,23,23,25,25,27,27],"right_children":[2,4,6,8,-1,-1,-1,-1,10,12,14,16,-1,18,20,22,-1,24,-1,-1,-1,-1,26,28,-1,30,-1,32,-1,-1,-1,-1,-1],"split_conditions":[1.251115E0,1.7736186E0,1.2078221E0,-1.1438512E0,-1.776971E-1,3.6295763E-1,1.06366634E-1,-3.9169453E-2,1.0811964E-1,5.2591234E-1,5.964576E-1,2.4320969E-1,3.0754694E-1,1.27007635E-2,-1.4652718E0,3.7093514E-1,2.1184456E-2,2.2678879E-1,2.179343E-1,8.8996075E-2,-2.732793E-1,2.7697098E-1,-4.9922955E-1,-5.7720757E-1,-1.14234544E-1,-1.2823448E-2,6.4303875E-2,1.2255192E-1,2.8224394E-1,1.3426207E-1,2.2266427E-1,1.288216E-1,-1.0332928E-1],"split_indices":[31,30,18,2,0,0,0,0,2,18,12,15,0,31,28,28,0,15,0,0,0,0,15,18,0,7,0,13,0,0,0,0,0],"split_type":[0,0,0,0,0,0,0,0,0,0,0,0,0,0,0,0,0,0,0,0,0,0,0,0,0,0,0,0,0,0,0,0,0],"sum_hessian":[2.195E3,1.965E3,2.3E2,1.862E3,1.03E2,1.18E2,1.12E2,1.75E2,1.687E3,8.2E2,8.67E2,6.61E2,1.59E2,6.49E2,2.18E2,5.32E2,1.29E2,4.76E2,1.73E2,1.18E2,1E2,1.04E2,4.28E2,3.42E2,1.34E2,2.43E2,1.85E2,2.04E2,1.38E2,1.26E2,1.17E2,1.02E2,1.02E2],"tree_param":{"num_deleted":"0","num_feature":"33","num_nodes":"33","size_leaf_vector":"0"}},{"base_weights":[8.757373E-1,7.2125787E-1,2.5915098E0,9.708809E-1,-1.6689668E0,8.259504E-1,3.438002E0,1.0000182E0,-6.119663E-1,2.1280614E-1,1.3953366E0,9.6823305E-1,-1.764414E0,9.2009085E-1,2.6381364E0,3.7300175E-1,2.0440056E0,1.2753893E0,2.1856806E-1,3.439155E0,1.9251584E0,1.314945E0,-8.4793437E-1,4.004484E-1,1.5496361E0,1.2202673E0,-1.1858926E0,2.4584267E0,1.1871123E0,1.6087792E0,5.8701956E-1],"categories":[],"categories_nodes":[],"categories_segments":[],"categories_sizes":[],"default_left":[1,0,0,1,0,1,0,0,0,1,0,1,0,1,1,0,0,1,1,0,0,0,0,0,1,0,0,0,0,0,0],"id":37,"left_children":[1,3,-1,5,-1,7,-1,9,-1,11,13,15,-1,17,19,21,-1,23,25,-1,-1,-1,-1,-1,27,-1,-1,-1,29,-1,-1],"loss_changes":[5.801842E2,1.204477E3,0E0,6.5006714E2,0E0,4.3262122E2,0E0,4.789502E2,0E0,7.724293E2,6.029739E2,2.3872229E2,0E0,1.84914E2,1.5500293E2,2.794277E2,0E0,1.1767468E2,3.5456573E2,0E0,0E0,0E0,0E0,0E0,1.20628296E2,0E0,0E0,0E0,6.737625E1,0E0,0E0],"parents":[2147483647,0,0,1,1,3,3,5,5,7,7,9,9,10,10,11,11,13,13,14,14,15,15,17,17,18,18,24,24,28,28],"right_children":[2,4,-1,6,-1,8,-1,10,-1,12,14,16,-1,18,20,22,-1,24,26,-1,-1,-1,-1,-1,28,-1,-1,-1,30,-1,-1],"split_conditions":[1.4139054E0,1.1088209E0,2.5915098E-1,1.4995499E0,-1.6689669E-1,1.2450476E0,3.4380022E-1,-2.8107584E-1,-6.1196633E-2,1.730558E-1,2.3192981E-1,1.7240337E-1,-1.764414E-1,-1.9563743E-1,-1.7271631E-3,-7.350086E-1,2.0440057E-1,-8.070334E-1,-2.4299876E-1,3.4391552E-1,1.9251584E-1,1.314945E-1,-8.479344E-2,4.004484E-2,1.8017772E-1,1.22026734E-1,-1.1858926E-1,2.4584268E-1,-8.078387E-1,1.6087793E-1,5.870196E-2],"split_indices":[1,15,0,32,0,27,0,24,0,14,14,3,0,6,10,28,0,32,4,0,0,0,0,0,32,0,0,0,25,0,0],"split_type":[0,0,0,0,0,0,0,0,0,0,0,0,0,0,0,0,0,0,0,0,0,0,0,0,0,0,0,0,0,0,0],"sum_hessian":[2.195E3,2.015E3,1.8E2,1.825E3,1.9E2,1.725E3,1E2,1.539E3,1.86E2,5.15E2,1.024E3,3.73E2,1.42E2,7.42E2,2.82E2,2.41E2,1.32E2,4.92E2,2.5E2,1.31E2,1.51E2,1.36E2,1.05E2,1.18E2,3.74E2,1.46E2,1.04E2,1.05E2,2.69E2,1.57E2,1.12E2],"tree_param":{"num_deleted":"0","num_feature":"33","num_nodes":"31","size_leaf_vector":"0"}},{"base_weights":[7.888444E-1,6.4933556E-1,2.848703E0,7.527212E-1,-1.3202919E0,6.182903E-1,2.0286586E0,-4.2631418E-1,7.485562E-1,1.296181E0,2.8113383E-1,2.0998998E0,9.923315E-1,-3.7257576E-1,8.068298E-1,1.7354852E0,6.7602116E-1,4.552499E-1,-2.3575091E0,6.2025584E-2,1.9722732E0,1.1117294E-2,1.0206403E0,-3.8482234E-1,1.4859567E0,-1.0062827E0,6.325923E-1,6.9255185E-1,1.4304138E0],"categories":[],"categories_nodes":[],"categories_segments":[],"categories_sizes":[],"default_left":[1,1,0,1,0,1,0,0,1,0,1,0,0,0,0,0,0,0,0,1,0,0,1,0,0,0,0,0,0],"id":38,"left_children":[1,3,-1,5,-1,7,-1,-1,9,11,13,-1,15,17,19,-1,21,23,-1,25,-1,-1,27,-1,-1,-1,-1,-1,-1],"loss_changes":[6.292113E2,4.200667E2,0E0,3.342495E2,0E0,2.413103E2,0E0,0E0,4.027917E2,1.7496814E2,2.927489E2,0E0,1.2294226E2,6.2548114E2,4.095865E2,0E0,8.5228195E1,2.3349036E2,0E0,1.7679396E2,0E0,0E0,3.1947632E1,0E0,0E0,0E0,0E0,0E0,0E0],"parents":[2147483647,0,0,1,1,3,3,5,5,8,8,9,9,10,10,12,12,13,13,14,14,16,16,17,17,19,19,22,22],"right_children":[2,4,-1,6,-1,8,-1,-1,10,12,14,-1,16,18,20,-1,22,24,-1,26,-1,-1,28,-1,-1,-1,-1,-1,-1],"split_conditions":[1.2272946E0,1.0353358E0,2.848703E-1,1.0078943E0,-1.3202919E-1,-1.0354748E0,2.0286587E-1,-4.2631418E-2,1.0811964E-1,9.4593644E-2,3.0283364E-2,2.0998998E-1,-8.386197E-1,-1.4534125E-1,7.17574E-1,1.7354852E-1,-3.062201E-1,-6.0205305E-1,-2.3575091E-1,-6.505761E-1,1.9722733E-1,1.1117294E-3,5.510313E-1,-3.8482234E-2,1.4859568E-1,-1.0062827E-1,6.325924E-2,6.925519E-2,1.4304139E-1],"split_indices":[29,19,0,11,0,2,0,0,2,28,1,0,21,23,19,0,14,24,0,12,0,0,23,0,0,0,0,0,0],"split_type":[0,0,0,0,0,0,0,0,0,0,0,0,0,0,0,0,0,0,0,0,0,0,0,0,0,0,0,0,0],"sum_hessian":[2.195E3,2.057E3,1.38E2,1.955E3,1.02E2,1.77E3,1.85E2,1.96E2,1.574E3,7.24E2,8.5E2,1.97E2,5.27E2,3.79E2,4.71E2,1.56E2,3.71E2,2.68E2,1.11E2,2.88E2,1.83E2,1.27E2,2.44E2,1.48E2,1.2E2,1E2,1.88E2,1.37E2,1.07E2],"tree_param":{"num_deleted":"0","num_feature":"33","num_nodes":"29","size_leaf_vector":"0"}},{"base_weights":[7.103901E-1,5.847226E-1,2.565882E0,8.279172E-1,-1.7968078E0,6.836411E-1,3.1960163E0,-1.0795795E0,8.085579E-1,1.5970657E0,5.9669554E-1,7.4558985E-1,3.6720057E0,2.988306E-1,1.366863E0,-1.6157077E-1,1.3699763E0,7.6079273E-1,-5.666729E-1,2.1163418E0,-1.6222231E-1,1.8263441E0,5.3140587E-1,-1.971182E0,3.8211218E-1,1.1530434E0,3.2900019E0,-3.8915282E-1,8.1934404E-1,2.1609576E0,1.887821E-1],"categories":[],"categories_nodes":[],"categories_segments":[],"categories_sizes":[],"default_left":[1,0,0,1,0,1,0,0,0,1,1,0,0,1,1,0,0,1,1,1,0,0,1,0,0,0,0,0,0,0,0],"id":39,"left_children":[1,3,-1,5,-1,7,-1,-1,9,11,13,15,-1,17,19,-1,-1,21,23,25,-1,-1,27,-1,-1,-1,-1,-1,29,-1,-1],"loss_changes":[5.1055212E2,1.1934307E3,0E0,6.3603625E2,0E0,3.88964E2,0E0,0E0,2.740199E2,6.1209503E2,2.9758978E2,1.406932E2,0E0,3.754715E2,4.1520142E2,0E0,0E0,1.4861664E2,4.36506E2,2.7093872E2,0E0,0E0,1.3417613E2,0E0,0E0,0E0,0E0,0E0,3.2529074E2,0E0,0E0],"parents":[2147483647,0,0,1,1,3,3,5,5,8,8,9,9,10,10,11,11,13,13,14,14,17,17,18,18,19,19,22,22,28,28],"right_children":[2,4,-1,6,-1,8,-1,-1,10,12,14,16,-1,18,20,-1,-1,22,24,26,-1,-1,28,-1,-1,-1,-1,-1,30,-1,-1],"split_conditions":[1.2272946E0,1.1088209E0,2.565882E-1,1.191732E0,-1.7968078E-1,-1.5100914E0,3.1960163E-1,-1.0795795E-1,-6.1632276E-1,-4.327072E-1,6.438386E-1,-1.0305319E0,3.6720058E-1,4.9011E-1,1.2053796E0,-1.6157078E-2,1.3699763E-1,-9.964504E-1,-1.7799221E-1,4.8796904E-1,-1.6222231E-2,1.8263441E-1,-6.313098E-1,-1.9711821E-1,3.821122E-2,1.1530434E-1,3.290002E-1,-3.8915284E-2,6.728431E-1,2.1609576E-1,1.887821E-2],"split_indices":[29,15,0,11,0,1,0,0,23,8,1,23,0,2,27,0,0,30,1,2,0,0,8,0,0,0,0,0,28,0,0],"split_type":[0,0,0,0,0,0,0,0,0,0,0,0,0,0,0,0,0,0,0,0,0,0,0,0,0,0,0,0,0,0,0],"sum_hessian":[2.195E3,2.057E3,1.38E2,1.867E3,1.9E2,1.761E3,1.06E2,1.16E2,1.645E3,3.47E2,1.298E3,2.47E2,1E2,9.37E2,3.61E2,1.01E2,1.46E2,6.11E2,3.26E2,2.42E2,1.19E2,1.07E2,5.04E2,1.31E2,1.95E2,1.34E2,1.08E2,1.2E2,3.84E2,1.22E2,2.62E2],"tree_param":{"num_deleted":"0","num_feature":"33","num_nodes":"31","size_leaf_vector":"0"}},{"base_weights":[6.399996E-1,5.156515E-1,2.1674862E0,6.679363E-1,-1.8949611E0,5.054089E-1,3.2268746E0,2.448655E-1,1.309576E0,7.0960665E-1,-6.965213E-1,7.5748104E-1,3.108591E0,-7.3929054E-1,8.8917387E-1,-1.1766236E0,9.7409606E-1,1.7726297E0,2.9240277E-1,5.922082E-1,2.628199E0,-2.8206518E-1,-1.8079841E0,-4.3149132E-1,8.495603E-1,8.0021775E-1,-4.8437363E-1,-3.1448567E0,-4.0026543E-1,-2.1729317E-2,1.3649226E0,-9.187357E-1,1.0850611E0,2.5607262E0,8.091947E-1],"categories":[],"categories_nodes":[],"categories_segments":[],"categories_sizes":[],"default_left":[1,1,0,1,0,0,0,1,0,0,0,0,0,0,1,1,0,0,1,1,0,0,0,0,0,0,0,0,0,1,1,0,0,0,0],"id":40,"left_children":[1,3,-1,5,-1,7,-1,9,11,13,15,17,-1,-1,19,21,-1,-1,23,25,-1,-1,27,-1,-1,29,-1,-1,-1,31,33,-1,-1,-1,-1],"loss_changes":[4.1599066E2,7.4721204E2,0E0,7.935656E2,0E0,3.766066E2,0E0,5.954959E2,4.3466522E2,2.3767624E2,3.6207648E2,1.5905943E2,0E0,0E0,4.1726892E2,1.971661E2,0E0,0E0,9.434085E1,1.5580144E2,0E0,0E0,3.8453888E2,0E0,0E0,2.7016934E2,0E0,0E0,0E0,2.3728279E2,2.2719458E2,0E0,0E0,0E0,0E0],"parents":[2147483647,0,0,1,1,3,3,5,5,7,7,8,8,9,9,10,10,11,11,14,14,15,15,18,18,19,19,22,22,25,25,29,29,30,30],"right_children":[2,4,-1,6,-1,8,-1,10,12,14,16,18,-1,-1,20,22,-1,-1,24,26,-1,-1,28,-1,-1,30,-1,-1,-1,32,34,-1,-1,-1,-1],"split_conditions":[1.1848078E0,1.4290378E0,2.1674863E-1,1.191732E0,-1.8949611E-1,5.092641E-1,3.2268748E-1,1.0616615E-1,5.128583E-1,-1.5024784E0,1.5879893E0,-1.1618698E-1,3.108591E-1,-7.392906E-2,1.0152212E-1,2.970575E-1,9.7409606E-2,1.7726298E-1,-4.9143046E-1,-2.5727516E-2,2.6281992E-1,-2.8206518E-2,9.3770154E-2,-4.3149132E-2,8.4956035E-2,-2.3148283E-1,-4.8437364E-2,-3.1448567E-1,-4.002654E-2,-3.875366E-1,-1.5359157E-1,-9.187357E-2,1.08506106E-1,2.560726E-1,8.091947E-2],"split_indices":[24,17,0,11,0,16,0,15,15,15,9,15,0,0,20,17,0,0,23,14,0,0,9,0,0,16,0,0,0,24,5,0,0,0,0],"split_type":[0,0,0,0,0,0,0,0,0,0,0,0,0,0,0,0,0,0,0,0,0,0,0,0,0,0,0,0,0,0,0,0,0,0,0],"sum_hessian":[2.195E3,2.031E3,1.64E2,1.911E3,1.2E2,1.798E3,1.13E2,1.359E3,4.39E2,9.1E2,4.49E2,3.37E2,1.02E2,1E2,8.1E2,3.49E2,1E2,1.05E2,2.32E2,6.93E2,1.17E2,1.45E2,2.04E2,1.01E2,1.31E2,5.81E2,1.12E2,1.04E2,1E2,2.37E2,3.44E2,1.31E2,1.06E2,1.08E2,2.36E2],"tree_param":{"num_deleted":"0","num_feature":"33","num_nodes":"35","size_leaf_vector":"0"}},{"base_weights":[5.7649523E-1,4.4075885E-1,1.7292278E0,6.1918116E-1,-6.871288E-1,2.7063522E0,6.8491775E-1,7.435831E-1,-1.0377452E0,5.486634E-1,-2.0126963E0,3.8902935E-1,1.3660029E0,-6.409679E-2,1.1286324E0,7.9015875E-1,2.873504E0,7.1227384E-1,-9.320514E-1,1.7673073E0,5.2921784E-1,1.4478533E0,2.5198898E-1,-8.943445E-2,1.6569792E0,-2.6488435E-2,-1.4009508E0,-4.0289783E-1,7.67853E-1],"categories":[],"categories_nodes":[],"categories_segments":[],"categories_sizes":[],"default_left":[1,1,0,1,1,0,0,1,0,0,0,0,0,1,0,1,0,1,1,0,0,0,1,0,0,0,0,0,0],"id":41,"left_children":[1,3,5,7,9,-1,-1,11,-1,-1,-1,13,15,17,19,21,-1,23,25,-1,-1,-1,27,-1,-1,-1,-1,-1,-1],"loss_changes":[3.4284094E2,3.9606387E2,2.3386353E2,3.507716E2,4.417602E2,0E0,0E0,3.481449E2,0E0,0E0,0E0,3.378869E2,4.9514258E2,4.224968E2,1.4568896E2,1.468789E2,0E0,2.5084033E2,1.2564975E2,0E0,0E0,0E0,7.801086E1,0E0,0E0,0E0,0E0,0E0,0E0],"parents":[2147483647,0,0,1,1,2,2,3,3,4,4,7,7,11,11,12,12,13,13,14,14,15,15,17,17,18,18,22,22],"right_children":[2,4,6,8,10,-1,-1,12,-1,-1,-1,14,16,18,20,22,-1,24,26,-1,-1,-1,28,-1,-1,-1,-1,-1,-1],"split_conditions":[1.251115E0,7.229161E-1,1.2078221E0,1.5445633E0,-2.4265029E-1,2.7063522E-1,6.849178E-2,5.040101E-2,-1.03774525E-1,5.486634E-2,-2.0126963E-1,5.1670396E-1,3.4474295E-1,-4.9688888E-1,-2.3491693E-1,-4.6837382E-2,2.873504E-1,-9.394413E-1,-7.881069E-1,1.7673074E-1,5.2921783E-2,1.4478533E-1,4.5827144E-1,-8.943445E-3,1.6569792E-1,-2.6488435E-3,-1.4009508E-1,-4.0289786E-2,7.67853E-2],"split_indices":[31,12,18,0,13,0,0,31,0,0,0,9,20,6,22,5,0,6,5,0,0,0,32,0,0,0,0,0,0],"split_type":[0,0,0,0,0,0,0,0,0,0,0,0,0,0,0,0,0,0,0,0,0,0,0,0,0,0,0,0,0],"sum_hessian":[2.195E3,1.965E3,2.3E2,1.697E3,2.68E2,1.18E2,1.12E2,1.579E3,1.18E2,1.39E2,1.29E2,1.007E3,5.72E2,6.25E2,3.82E2,4.15E2,1.57E2,3.3E2,2.95E2,1.84E2,1.98E2,1.86E2,2.29E2,1.79E2,1.51E2,1.01E2,1.94E2,1.01E2,1.28E2],"tree_param":{"num_deleted":"0","num_feature":"33","num_nodes":"29","size_leaf_vector":"0"}},{"base_weights":[5.192104E-1,3.832993E-1,2.0301359E0,5.8885443E-1,-1.5502588E0,4.6894893E-1,2.62854E0,5.9172857E-1,-1.0527757E0,7.3728275E-1,-9.2626125E-1,8.784416E-1,-4.53208E-1,-2.9484636E-1,1.0257376E0,6.837812E-1,1.6264061E0,2.157692E0,4.470686E-1,9.790776E-1,3.5286207E0,-8.364394E-1,8.7486446E-1,2.5172547E-1,1.8143065E0],"categories":[],"categories_nodes":[],"categories_segments":[],"categories_sizes":[],"default_left":[1,0,0,1,0,1,0,1,0,1,0,1,0,0,1,1,1,0,0,1,0,0,0,0,0],"id":42,"left_children":[1,3,-1,5,-1,7,-1,9,-1,11,-1,13,-1,-1,15,17,19,-1,21,23,-1,-1,-1,-1,-1],"loss_changes":[4.501739E2,8.021776E2,0E0,4.4461743E2,0E0,3.225427E2,0E0,3.5309772E2,0E0,2.4507642E2,0E0,2.25315E2,0E0,0E0,2.3653845E2,2.568675E2,5.1248413E2,0E0,3.5104437E2,1.9030005E2,0E0,0E0,0E0,0E0,0E0],"parents":[2147483647,0,0,1,1,3,3,5,5,7,7,9,9,11,11,14,14,15,15,16,16,18,18,19,19],"right_children":[2,4,-1,6,-1,8,-1,10,-1,12,-1,14,-1,-1,16,18,20,-1,22,24,-1,-1,-1,-1,-1],"split_conditions":[1.4139054E0,1.1068645E0,2.0301358E-1,1.4995499E0,-1.5502588E-1,1.5445633E0,2.62854E-1,9.967145E-1,-1.05277576E-1,1.3757992E0,-9.2626125E-2,-1.0067766E0,-4.53208E-2,-2.9484635E-2,-4.4775093E-1,-1.042984E0,5.173427E-1,2.157692E-1,6.605525E-3,-4.1101452E-2,3.528621E-1,-8.3643936E-2,8.7486446E-2,2.5172547E-2,1.8143065E-1],"split_indices":[1,15,0,32,0,0,0,7,0,4,0,2,0,0,29,9,9,0,19,12,0,0,0,0,0],"split_type":[0,0,0,0,0,0,0,0,0,0,0,0,0,0,0,0,0,0,0,0,0,0,0,0,0],"sum_hessian":[2.195E3,2.015E3,1.8E2,1.822E3,1.93E2,1.722E3,1E2,1.594E3,1.28E2,1.455E3,1.39E2,1.301E3,1.54E2,1.45E2,1.156E3,7.38E2,4.18E2,1.01E2,6.37E2,3.13E2,1.05E2,1.59E2,4.78E2,1.68E2,1.45E2],"tree_param":{"num_deleted":"0","num_feature":"33","num_nodes":"25","size_leaf_vector":"0"}},{"base_weights":[4.676612E-1,1.6379316E0,2.9997543E-1,3.517142E-1,3.850309E0,-9.577527E-1,4.5894983E-1,-2.175938E0,1.3105284E-1,6.141211E-1,-1.8441325E0,7.623541E-1,-5.895506E-1,8.954437E-1,-9.1929996E-1,5.311538E-1,1.6464572E0,-7.130329E-1,6.893481E-1,2.586056E0,5.882465E-1,9.228138E-1,-3.5714588E-1,3.6522825E0,1.7245331E0,-4.862374E-1,1.6260794E0,5.6825E-1,2.1249475E0,-4.8142996E-1,8.312161E-1],"categories":[],"categories_nodes":[],"categories_segments":[],"categories_sizes":[],"default_left":[1,1,1,0,0,1,1,0,0,1,0,1,0,0,0,0,1,0,1,1,1,0,0,0,0,0,0,1,0,0,0],"id":43,"left_children":[1,3,5,-1,-1,7,9,-1,-1,11,-1,13,-1,15,-1,17,19,-1,21,23,25,27,-1,-1,-1,-1,-1,29,-1,-1,-1],"loss_changes":[4.3044653E2,7.8118536E2,3.8473688E2,0E0,0E0,2.8678036E2,6.111666E2,0E0,0E0,2.8592767E2,0E0,3.1975336E2,0E0,3.6053345E2,0E0,1.7586105E2,4.270193E2,0E0,1.9358704E2,2.0313733E2,2.2827815E2,2.745653E2,0E0,0E0,0E0,0E0,0E0,1.3869133E2,0E0,0E0,0E0],"parents":[2147483647,0,0,1,1,2,2,5,5,6,6,9,9,11,11,13,13,15,15,16,16,18,18,19,19,20,20,21,21,27,27],"right_children":[2,4,6,-1,-1,8,10,-1,-1,12,-1,14,-1,16,-1,18,20,-1,22,24,26,28,-1,-1,-1,-1,-1,30,-1,-1,-1],"split_conditions":[-1.1479552E0,3.977127E-1,-9.6356565E-1,3.517142E-2,3.850309E-1,-7.216835E-1,1.3044263E0,-2.1759379E-1,1.31052835E-2,1.2450476E0,-1.8441325E-1,1.7144346E0,-5.8955062E-2,2.863462E-1,-9.1929995E-2,-6.0571086E-1,7.2688925E-1,-7.130329E-2,7.975274E-1,-1.1425297E-1,5.933198E-1,-1.4902076E-1,-3.571459E-2,3.6522827E-1,1.7245331E-1,-4.862374E-2,1.6260795E-1,-2.3300831E-1,2.1249476E-1,-4.8142996E-2,8.312161E-2],"split_indices":[4,12,3,0,0,23,6,0,0,27,0,4,0,25,0,16,27,0,12,9,23,25,0,0,0,0,0,9,0,0,0],"split_type":[0,0,0,0,0,0,0,0,0,0,0,0,0,0,0,0,0,0,0,0,0,0,0,0,0,0,0,0,0,0,0],"sum_hessian":[2.195E3,2.74E2,1.921E3,1.74E2,1E2,2.15E2,1.706E3,1.01E2,1.14E2,1.599E3,1.07E2,1.424E3,1.75E2,1.32E3,1.04E2,8.9E2,4.3E2,1E2,7.9E2,2.27E2,2.03E2,6.46E2,1.44E2,1E2,1.27E2,1E2,1.03E2,5E2,1.46E2,1E2,4E2],"tree_param":{"num_deleted":"0","num_feature":"33","num_nodes":"31","size_leaf_vector":"0"}},{"base_weights":[4.2120114E-1,3.0324408E-1,1.8713076E0,4.3591478E-1,-2.1357307E0,2.872193E-1,2.714318E0,3.9796123E-1,-1.4627019E0,2.5153673E-1,1.5297718E0,1.649289E0,1.274913E-1,-1.0336542E-1,9.795146E-1,7.751068E-2,-1.5569942E0,1.8119315E0,4.986652E-1,-5.435501E-1,3.898383E-1,-1.4379382E0,-1.12108074E-1,1.0847125E0,1.0038217E-2],"categories":[],"categories_nodes":[],"categories_segments":[],"categories_sizes":[],"default_left":[1,1,0,1,0,1,0,1,0,0,0,0,0,1,0,1,0,0,0,0,1,0,0,0,0],"id":44,"left_children":[1,3,-1,5,-1,7,-1,9,-1,11,-1,-1,13,15,17,19,-1,-1,-1,21,23,-1,-1,-1,-1],"loss_changes":[3.7505902E2,6.5844653E2,0E0,6.524042E2,0E0,3.5153522E2,0E0,2.820103E2,0E0,2.616008E2,0E0,0E0,2.7311432E2,2.8749957E2,1.1757553E2,1.8894902E2,0E0,0E0,0E0,1.2563455E2,1.7100494E2,0E0,0E0,0E0,0E0],"parents":[2147483647,0,0,1,1,3,3,5,5,7,7,9,9,12,12,13,13,14,14,15,15,19,19,20,20],"right_children":[2,4,-1,6,-1,8,-1,10,-1,12,-1,-1,14,16,18,20,-1,-1,-1,22,24,-1,-1,-1,-1],"split_conditions":[1.1848078E0,1.5053604E0,1.8713076E-1,1.191732E0,-2.1357308E-1,1.0273077E0,2.714318E-1,6.658956E-1,-1.462702E-1,-1.5882512E0,1.5297718E-1,1.649289E-1,5.092641E-1,3.3234873E-1,1.1584294E0,-1.8116471E-3,-1.5569942E-1,1.8119316E-1,4.9866524E-2,-5.625162E-1,5.8512235E-1,-1.4379382E-1,-1.1210808E-2,1.0847125E-1,1.0038217E-3],"split_indices":[24,18,0,11,0,30,0,11,0,30,0,0,16,11,24,4,0,0,0,24,4,0,0,0,0],"split_type":[0,0,0,0,0,0,0,0,0,0,0,0,0,0,0,0,0,0,0,0,0,0,0,0,0],"sum_hessian":[2.195E3,2.031E3,1.64E2,1.927E3,1.04E2,1.81E3,1.17E2,1.703E3,1.07E2,1.509E3,1.94E2,1.22E2,1.387E3,1.092E3,2.95E2,9.72E2,1.2E2,1.07E2,1.88E2,3.25E2,6.47E2,1.05E2,2.2E2,2.28E2,4.19E2],"tree_param":{"num_deleted":"0","num_feature":"33","num_nodes":"25","size_leaf_vector":"0"}},{"base_weights":[3.7928483E-1,2.6769248E-1,2.0287657E0,4.658919E-1,-1.9648244E0,3.1243208E-1,2.2579362E0,1.2777552E-1,9.506108E-1,4.0759414E-1,-1.1983473E0,3.6677152E-1,2.1473527E0,-5.102375E-1,5.8426785E-1,-3.1400247E0,3.2896677E-1,8.563251E-1,-1.1455899E-1,-7.8339154E-1,7.763265E-1,-4.1754106E-1,9.4959456E-1,1.4191781E0,3.6294827E-1,8.973003E-1,2.8532622E0,1.4377304E0,-8.414986E-1],"categories":[],"categories_nodes":[],"categories_segments":[],"categories_sizes":[],"default_left":[1,1,0,1,0,0,0,1,0,1,0,1,0,0,0,0,0,0,0,0,1,0,0,1,0,0,0,0,0],"id":45,"left_children":[1,3,-1,5,-1,7,-1,9,11,13,15,17,-1,-1,19,-1,-1,-1,-1,-1,21,-1,23,25,27,-1,-1,-1,-1],"loss_changes":[4.036735E2,9.1154663E2,0E0,5.193324E2,0E0,2.0528041E2,0E0,5.0255142E2,2.7240604E2,1.8158937E2,7.00903E2,6.230629E1,0E0,0E0,2.4699332E2,0E0,0E0,0E0,0E0,0E0,1.706416E2,0E0,1.9755463E2,2.9605804E2,4.1675012E2,0E0,0E0,0E0,0E0],"parents":[2147483647,0,0,1,1,3,3,5,5,7,7,8,8,9,9,10,10,11,11,14,14,20,20,22,22,23,23,24,24],"right_children":[2,4,-1,6,-1,8,-1,10,12,14,16,18,-1,-1,20,-1,-1,-1,-1,-1,22,-1,24,26,28,-1,-1,-1,-1],"split_conditions":[1.2272946E0,1.1851912E0,2.0287657E-1,1.035992E0,-1.9648245E-1,5.092641E-1,2.2579363E-1,2.990939E-1,3.2026136E-1,-1.804913E0,-3.653442E-2,-8.73513E-1,2.1473527E-1,-5.102375E-2,-1.2477317E0,-3.1400248E-1,3.289668E-2,8.563251E-2,-1.1455899E-2,-7.833915E-2,-1.4546878E0,-4.1754108E-2,-1.4984049E-1,-4.6949327E-1,-3.7657133E-1,8.973003E-2,2.853262E-1,1.4377305E-1,-8.414986E-2],"split_indices":[29,17,0,11,0,16,0,17,14,10,10,27,0,0,16,0,0,0,0,0,22,0,22,20,16,0,0,0,0],"split_type":[0,0,0,0,0,0,0,0,0,0,0,0,0,0,0,0,0,0,0,0,0,0,0,0,0,0,0,0,0],"sum_hessian":[2.195E3,2.057E3,1.38E2,1.89E3,1.67E2,1.742E3,1.48E2,1.352E3,3.9E2,1.117E3,2.35E2,2.63E2,1.27E2,1.8E2,9.37E2,1.03E2,1.32E2,1.3E2,1.33E2,1.15E2,8.22E2,1.04E2,7.18E2,3.98E2,3.2E2,2.93E2,1.05E2,1.69E2,1.51E2],"tree_param":{"num_deleted":"0","num_feature":"33","num_nodes":"29","size_leaf_vector":"0"}},{"base_weights":[3.4158581E-1,1.989661E0,2.5621784E-1,1.5162581E-1,1.6471131E0,3.006151E-1,-2.5700366E0,9.7097E-2,1.0257859E0,2.5770938E-1,-1.7927345E0,4.0945965E-1,2.3216622E0,-7.036589E-1,3.9553466E-1,-7.031629E-1,1.0695213E0,6.2735313E-1,-4.5791698E-1,4.5750287E-1,1.9766744E0,-1.2395637E0,2.0065391E-1,6.5398383E-1,-4.6122086E-1,3.767891E-1,1.2482486E0],"categories":[],"categories_nodes":[],"categories_segments":[],"categories_sizes":[],"default_left":[1,0,1,1,0,1,0,1,1,1,0,1,0,0,1,0,0,1,0,1,0,0,0,0,0,0,0],"id":46,"left_children":[1,-1,3,5,-1,7,-1,9,11,13,-1,15,-1,-1,17,-1,-1,19,21,23,-1,-1,-1,25,-1,-1,-1],"loss_changes":[3.0845172E2,0E0,3.0365076E2,7.890618E2,0E0,2.7204785E2,0E0,4.3784924E2,3.217172E2,1.7637195E2,0E0,2.0271187E2,0E0,0E0,2.3038202E2,0E0,0E0,2.0879773E2,1.2842639E2,1.4723817E2,0E0,0E0,0E0,1.1006149E2,0E0,0E0,0E0],"parents":[2147483647,0,0,2,2,3,3,5,5,7,7,8,8,9,9,11,11,14,14,17,17,18,18,19,19,23,23],"right_children":[2,-1,4,6,-1,8,-1,10,12,14,-1,16,-1,-1,18,-1,-1,20,22,24,-1,-1,-1,26,-1,-1,-1],"split_conditions":[-1.6998379E0,1.989661E-1,1.1848078E0,1.3585589E0,1.6471131E-1,4.1651717E-1,-2.5700366E-1,8.4123975E-1,6.671921E-1,-1.5079169E0,-1.7927346E-1,5.8380798E-2,2.3216622E-1,-7.036589E-2,1.8559214E-1,-7.031629E-2,1.0695213E-1,4.0892035E-1,4.495111E-1,5.8896113E-2,1.9766745E-1,-1.23956375E-1,2.0065391E-2,-7.591693E-2,-4.6122085E-2,3.767891E-2,1.2482486E-1],"split_indices":[4,0,24,6,0,21,0,15,11,10,0,4,0,0,15,0,0,6,15,11,0,0,0,25,0,0,0],"split_type":[0,0,0,0,0,0,0,0,0,0,0,0,0,0,0,0,0,0,0,0,0,0,0,0,0,0,0],"sum_hessian":[2.195E3,1.07E2,2.088E3,1.943E3,1.45E2,1.843E3,1E2,1.44E3,4.03E2,1.328E3,1.12E2,2.74E2,1.29E2,1.66E2,1.162E3,1.02E2,1.72E2,9.14E2,2.48E2,8.13E2,1.01E2,1.13E2,1.35E2,6.7E2,1.43E2,4.58E2,2.12E2],"tree_param":{"num_deleted":"0","num_feature":"33","num_nodes":"27","size_leaf_vector":"0"}},{"base_weights":[3.075804E-1,1.8417662E-1,1.5182188E0,2.9547435E-1,-1.3265924E0,3.7261143E-1,2.6714795E0,-4.252269E-1,4.3177128E-1,-2.027232E0,5.469341E-1,6.246839E-1,-3.6596242E-1,3.022536E-1,1.513112E0,3.5322315E-1,-1.1312689E0,-9.0452254E-1,4.9544293E-1,2.552754E0,9.5805925E-1,7.133014E-1,-5.608912E-1,3.0962402E-1,1.6399617E0,3.664743E-1,2.1030886E0,7.5618446E-1,-8.8093124E-2,4.0127727E-1,1.1234357E0,2.4815781E-1,-5.7328665E-1],"categories":[],"categories_nodes":[],"categories_segments":[],"categories_sizes":[],"default_left":[1,1,1,1,0,0,0,1,1,0,0,0,0,0,1,0,0,0,1,0,1,1,0,0,0,1,0,0,1,0,0,0,0],"id":47,"left_children":[1,3,5,7,-1,-1,-1,9,11,-1,-1,13,15,17,19,-1,-1,-1,21,-1,23,25,-1,-1,-1,27,-1,29,31,-1,-1,-1,-1],"loss_changes":[3.27797E2,3.3567346E2,2.6720496E2,1.8269379E2,0E0,0E0,0E0,4.621012E2,2.4076321E2,0E0,0E0,3.601909E2,1.6827077E2,2.1609921E2,1.9086804E2,0E0,0E0,0E0,1.8404492E2,0E0,9.6769516E1,3.1832385E2,0E0,0E0,0E0,9.413303E1,0E0,3.6826447E1,4.027637E1,0E0,0E0,0E0,0E0],"parents":[2147483647,0,0,1,1,2,2,3,3,7,7,8,8,11,11,12,12,13,13,14,14,18,18,20,20,21,21,25,25,27,27,28,28],"right_children":[2,4,6,8,-1,-1,-1,10,12,-1,-1,14,16,18,20,-1,-1,-1,22,-1,24,26,-1,-1,-1,28,-1,30,32,-1,-1,-1,-1],"split_conditions":[9.5903456E-1,1.2965777E0,-4.7749007E-1,-9.6356565E-1,-1.3265924E-1,3.7261143E-2,2.6714796E-1,-7.2330594E-1,9.203304E-1,-2.0272319E-1,5.4693412E-2,2.863462E-1,-7.740191E-1,-6.180562E-1,3.3617318E-1,3.5322316E-2,-1.1312689E-1,-9.0452254E-2,7.9470366E-1,2.552754E-1,-3.0582035E-1,-6.0205305E-1,-5.608912E-2,3.0962402E-2,1.6399617E-1,-9.113345E-1,2.1030886E-1,-1.0588968E0,-3.0822232E-1,4.0127728E-2,1.1234357E-1,2.4815781E-2,-5.7328667E-2],"split_indices":[29,6,5,3,0,0,0,21,27,0,0,25,16,16,27,0,0,0,12,0,29,24,0,0,0,21,0,25,27,0,0,0,0],"split_type":[0,0,0,0,0,0,0,0,0,0,0,0,0,0,0,0,0,0,0,0,0,0,0,0,0,0,0,0,0,0,0,0,0],"sum_hessian":[2.195E3,1.993E3,2.02E2,1.857E3,1.36E2,1.02E2,1E2,2.95E2,1.562E3,1.11E2,1.84E2,1.258E3,3.04E2,9.24E2,3.34E2,1.57E2,1.47E2,1.27E2,7.97E2,1.15E2,2.19E2,